tree
version=v3
num_class=1
num_tree_per_iteration=1
label_index=0
max_feature_idx=89
objective=regression
feature_names=Column_0 Column_1 Column_2 Column_3 Column_4 Column_5 Column_6 Column_7 Column_8 Column_9 Column_10 Column_11 Column_12 Column_13 Column_14 Column_15 Column_16 Column_17 Column_18 Column_19 Column_20 Column_21 Column_22 Column_23 Column_24 Column_25 Column_26 Column_27 Column_28 Column_29 Column_30 Column_31 Column_32 Column_33 Column_34 Column_35 Column_36 Column_37 Column_38 Column_39 Column_40 Column_41 Column_42 Column_43 Column_44 Column_45 Column_46 Column_47 Column_48 Column_49 Column_50 Column_51 Column_52 Column_53 Column_54 Column_55 Column_56 Column_57 Column_58 Column_59 Column_60 Column_61 Column_62 Column_63 Column_64 Column_65 Column_66 Column_67 Column_68 Column_69 Column_70 Column_71 Column_72 Column_73 Column_74 Column_75 Column_76 Column_77 Column_78 Column_79 Column_80 Column_81 Column_82 Column_83 Column_84 Column_85 Column_86 Column_87 Column_88 Column_89
feature_infos=[-1:1] [-1:1] [-1:1] [0.020169763326697662:0.92199796718455362] [0.020169763326697662:0.92199796718455362] [-0.068222830445891072:0.068222830445891072] [-0.082516844010773305:0.082516844010773305] [-0.080237800943954718:0.080237800943954718] [-0.064075627021441012:0.064075627021441012] [-0.024397732988152565:0.024397732988152565] [-0.020709915421323777:0.020709915421323777] [-0.024283730718283943:0.024283730718283943] [-0.020822968678054429:0.020822968678054429] [-0.036853758630826863:0.036853758630826863] [-0.031669615516201184:0.031669615516201184] [-0.056581734063745157:0.056581734063745157] [-0.04502867052349508:0.04502867052349508] [-0.037342573563383386:0.037342573563383386] [-0.037813982773982971:0.037813982773982971] [-0.041278090637450152:0.041278090637450152] [-0.034022023756325528:0.034022023756325528] [-0.027072296133204506:0.027072296133204506] [-0.036509026590777614:0.036509026590777614] [-0.041324033110055537:0.041324033110055537] [-0.039678146754959856:0.039678146754959856] [-1.8:1.8] [-1.8:1.8] [-1.8:1.8] [-1.8:1.8] [-1.8:1.8] [-1.8:1.8] [-1.8:1.8] [-1.8:1.8] [-1.8:1.8] [-1.8:1.8] [-1.4870000000000001:1.4870000000000001] [-1.8:1.8] [-1.8:1.8] [0.00012342800782264512:0.99908875697977184] [0.00012342800782264512:0.99966456912530488] [4.5411536468607265e-05:0.99966456912530488] [1.6706953148052769e-05:0.99987657199217739] [4.5411536468607265e-05:0.99999385360547954] [0.00012342800782264512:0.99966456912530488] [0.00012342800782264512:0.99966456912530488] [4.5411536468607265e-05:0.99908875697977184] [0.00012342800782264512:0.99998329304685196] [0.00012342800782264512:0.99966456912530488] [4.5411536468607265e-05:0.99908875697977184] [4.5411536468607265e-05:0.99966456912530488] [0.00012342800782264512:0.99995458846353136] [0.00012342800782264512:0.99987657199217739] [4.5411536468607265e-05:0.99966456912530488] [0.00012342800782264512:0.99908875697977184] [0.00012342800782264512:0.99908875697977184] [4.5411536468607265e-05:0.99999773879096454] [0.00012342800782264512:0.99995458846353136] [0.00012342800782264512:0.99966456912530488] [-0.99961915758883624:0.99961915758883624] [0:1] [0.015953931841782308:1] [0.0075682493918371009:1] [0.0088296242904766179:1] [0.012384740553245344:1] [0.01094391244870041:1] [0.021238177128116938:1] [0.050180538838996383:1] [0.050031896473161398:1] [0:1] [0.015201520152015202:1] [0.037167661421595229:1] [0.10418804216024624:1] [0.027823389892355409:1] [0.022939677145284623:1] [0.034626423479307472:1] [0:1] [0.03175631885936487:1] [0.0067108244727209342:1] [0.012607653378318387:1] [0:0.26784750944074803] [0.018252112929329253:1] [0.019779286926994908:1] [0:1] [0.0010935933655335825:1] [0:1] [0:1] [0.10001000100010002:1] [0:0.64475813702571472] [0:0.86134920634920631] [-1:1]
tree_sizes=4209 4143 4227 4115 4231 4143 4221 4131 4235 4154 4205 4175 4198 4166 4257 4185 4174 4169

Tree=0
num_leaves=45
num_cat=0
split_feature=58 36 36 89 89 25 89 25 89 27 33 25 37 37 27 58 23 25 58 28 89 89 3 32 89 27 37 25 12 16 15 28 58 89 32 33 33 58 15 17 17 89 58 25
split_gain=4900.5 896.865 716.809 285.326 200.736 199.279 183.865 123.239 112.395 89.8646 86.3955 77.0884 70.4503 58.8675 55.5677 43.1209 38.1172 37.3613 36.4267 42.5809 36.3697 36.2999 34.1588 33.3915 32.5708 31.2918 30.7358 33.7831 30.4349 29.1694 27.9213 27.796 41.5876 35.3114 27.6452 26.6223 26.0565 25.2905 24.7333 24.4078 23.81 24.0974 23.4686 22.617
threshold=1.0000000180025095e-35 -0.52049999999999985 0.41000000000000009 0.095002129957217865 -0.094888506011901436 0.37300000000000005 0.22111342759082786 -0.18499999999999997 -0.22096754053974876 1.0000000180025095e-35 0.27350000000000008 0.14350000000000002 0.044500000000000005 1.3675000000000004 -1.0000000180025095e-35 -0.2410058315400585 0.010198527852542627 -0.32049999999999995 -0.45733768325631657 0.6090000000000001 -0.046073516138681402 -0.046073516138681402 0.076352256799135709 1.018 0.046169063372598275 -0.28499999999999998 -0.18549999999999997 -0.49949999999999994 -0.0055290887311005982 -0.015378539234744222 1.0000000180025095e-35 -0.58599999999999985 0.94798658656143331 -0.31141003102415715 -0.94049999999999989 1.0350000000000001 -0.97199999999999986 -0.45733768325631657 0.004669792387445631 0.010288896423872158 0.001869876601847457 -0.31141003102415715 -0.89296429437591318 0.68450000000000011
decision_type=2 2 2 2 2 2 2 2 2 2 2 2 2 2 2 2 2 2 2 2 2 2 2 2 2 2 2 2 2 2 2 2 2 2 2 2 2 2 2 2 2 2 2 2
left_child=1 6 4 9 10 20 13 23 28 17 22 25 -10 15 24 26 18 37 19 43 -4 36 40 38 -6 29 30 -28 -7 -5 -1 32 -12 -33 -30 -16 -11 -3 -8 -19 41 -2 -21 -13
right_child=2 3 5 11 14 8 7 -9 12 21 31 16 -14 -15 35 -17 -18 39 -20 42 -22 -23 -24 -25 -26 -27 27 -29 34 -31 -32 33 -34 -35 -36 -37 -38 -39 -40 -41 -42 -43 -44 -45
leaf_value=-0.011830769145431429 0.022264705808723674 -0.01601764695609317 0.013012698387283654 -0.0050950000211596493 0.00070404041915981457 0.0082900001704692833 -0.024556578974844073 -0.013893129742697224 0.019277653609657421 0.019328571600573403 0.0062807018164414584 -0.013070621462380987 0.0065122806614166815 -0.023389130273590918 0.0051131313140519745 -0.0063491379675166357 0.0026348838370380012 -0.0028167701910556476 -0.0037438095288262478 0.0033428571554166933 0.0038320000059902672 0.00017408759244819626 0.0098781144811524082 -0.031711940293881427 -0.0066367815998008197 -0.010234346499038141 -0.019307692316360772 -0.011266666618841036 0.031501428578581125 -0.018292232932143132 0.0056857143502150268 0.011374149667542606 -0.0041807017860966819 0.0046345454504092536 0.024274193570361157 -0.012344444265796079 0.0049755724799598897 -0.0059948454044528848 -0.011300000011920931 0.011708333166316151 0.0049749997984617949 0.014059166631350914 -0.0068138462279278503 -0.0074186441087621758
leaf_weight=26 51 34 315 20 198 9.9999999999999982 228 131 179 13.999999999999998 114 177 57 46 297 116 43 322 210 35 50 274 297 67 87 329 104 105 70 103 13.999999999999998 147 57 165 217 8.9999999999999982 131 97 14.999999999999998 11.999999999999998 20 120 65 118
leaf_count=26 51 34 315 20 198 10 228 131 179 14 114 177 57 46 297 116 43 322 210 35 50 274 297 67 87 329 104 105 70 103 14 147 57 165 217 9 131 97 15 12 20 120 65 118
internal_value=0 -0.00895903 0.0103284 -0.00527384 0.00623547 0.0174477 -0.0175405 -0.0220252 0.021346 -0.00104355 0.00903223 -0.00867345 0.0161945 -0.0127285 0.00164044 -0.0113849 -0.0064625 -0.00407011 -0.00710909 -0.00889823 0.0117551 0.00231527 0.0119998 -0.0254616 -0.00153684 -0.0118431 -0.0137309 -0.0152679 0.0254394 -0.0161463 -0.0057 0.00603395 0.00279357 0.00780994 0.0260369 0.00459967 0.00636138 -0.00859618 -0.0237383 -0.00229491 0.015299 0.0165064 -0.003259 -0.0108098
internal_weight=0 2836 2460 1984 1562 898 852 441 533 884 971 1100 236 411 591 365 648 465 605 395 365 419 488 310 285 452 249 209 297 123 40 483 171 312 287 306 145 131 243 334 191 171 100 295
internal_count=5296 2836 2460 1984 1562 898 852 441 533 884 971 1100 236 411 591 365 648 465 605 395 365 419 488 310 285 452 249 209 297 123 40 483 171 312 287 306 145 131 243 334 191 171 100 295
is_linear=0
shrinkage=0.01


Tree=1
num_leaves=45
num_cat=0
split_feature=58 36 36 89 61 89 61 25 27 41 25 41 61 44 49 89 44 86 25 36 58 58 66 89 44 77 89 58 65 15 75 71 63 37 76 22 58 75 35 58 33 56 54 25
split_gain=4806.51 817.285 750.363 374.334 266.747 198.395 188.087 148.09 100.597 93.5611 91.4224 78.2965 77.6693 68.5416 67.7157 56.6816 54.4021 50.0582 47.7892 46.2704 44.7581 41.9419 41.2312 40.3947 39.5602 39.382 38.928 36.5835 34.3717 34.2844 34.1819 32.7989 32.297 30.6119 30.1816 29.8885 29.5841 30.6199 37.0251 28.3403 28.1995 28.0829 27.9796 27.841
threshold=-1.0000000180025095e-35 0.81900000000000006 -0.33199999999999996 -0.094888506011901436 0.49463660353936534 0.095002129957217865 0.49463660353936534 -0.090499999999999983 -1.0000000180025095e-35 0.99937666305253847 -0.32049999999999995 0.99937666305253847 0.49463660353936534 0.99937666305253847 0.083319598386691909 -0.22096754053974876 0.99937666305253847 0.69544430843329241 0.50550000000000017 0.81900000000000006 -0.2410058315400585 0.49541653982718731 0.3221246568395213 0.14972487108278115 0.80592170819078202 0.66137720323525928 0.046169063372598275 0.26832400316334476 0.56018265202439355 0.0025204836189667364 0.45663295089851647 0.46532700980976788 0.48109127764901544 0.80300000000000016 0.57529136277158377 0.004451249664846395 -0.2410058315400585 0.50920172147208487 -0.38199999999999995 -0.45733768325631657 0.76900000000000013 0.91668040161330822 0.083319598386691909 0.14350000000000002
decision_type=2 2 2 2 2 2 2 2 2 2 2 2 2 2 2 2 2 2 2 2 2 2 2 2 2 2 2 2 2 2 2 2 2 2 2 2 2 2 2 2 2 2 2 2
left_child=2 3 4 7 20 19 27 11 26 13 17 16 -9 14 39 29 21 -6 34 33 22 -2 -1 -19 30 -26 -5 -3 -16 -14 42 41 -29 -4 -8 -32 37 -30 -39 -7 -28 -24 -23 -41
right_child=1 6 5 8 10 9 18 12 -10 -11 -12 -13 15 -15 28 -17 -18 23 -20 -21 -22 24 31 -25 25 -27 40 32 36 -31 35 -33 -34 -35 -36 -37 -38 38 -40 43 -42 -43 -44 -45
leaf_value=-0.019192929276914308 0.0046401396617426881 0.0047793348792794293 -0.00073365088446988175 5.5141052468180922e-05 -0.016967105294011301 -0.016587096057405139 0.020189113913599503 0.0084613704411916572 0.0043916073438318402 0.010845146564145883 -0.013720599053874611 -0.01197700416499918 0.015700451569587347 0.0091484371526166803 -0.0057483373431355825 0.01034538058076054 -0.010488049449653345 -0.019266813954972959 0.026859812927949759 0.0088325510667853577 -0.0034813130959511214 0.018832755635182063 -0.0071849648813905685 -0.026949622403506353 0.012047258586837695 0.00092245130033073264 -0.0048197297786915661 0.020587842513850773 -0.0092961684620344025 0.023028020024914476 0.017922822073945459 -0.013123733699701878 0.01095566937861883 -0.0067295038759290614 -0.0028481589257717131 0.0068956569838337601 -0.0026358599715223092 -0.025827413704888575 -0.011675708381568685 -0.013411912558600308 -0.019283455928166708 0.012476780582219363 0.0062453304824780101 -0.0014785547760026209
leaf_weight=66 279 51 417 280 97 157 109 216 526 24 125 22 168 20 350 125 17 91 234 43 73 21 79 276 52 82 133 56 169 103 106 147 92 107 5.9999999999999991 32 42 29 51 60 14.999999999999998 7.9999999999999991 111 29
leaf_count=66 279 51 417 280 97 157 109 216 526 24 125 22 168 20 350 125 17 91 234 43 73 21 79 276 52 82 133 56 169 103 106 147 92 107 6 32 42 29 51 60 15 8 111 29
internal_value=0 0.00887269 -0.0102288 0.00624547 -0.0171207 -0.00580296 0.0198418 0.00966604 0.00146242 -0.00864302 -0.0213111 0.00659849 0.013285 -0.00915869 -0.00957148 0.015916 0.00718229 -0.023356 0.0242657 -0.00113966 -0.0105036 0.0076221 -0.0122124 -0.0250446 0.00968143 0.00523954 -0.00213747 0.0120834 -0.0078598 0.0184855 0.0118859 -0.0102435 0.0146003 -0.00195799 0.0189872 0.0153658 -0.0103994 -0.0117089 -0.0168057 -0.0140316 -0.00628565 -0.00537699 0.00824788 -0.00952352
internal_weight=0 2836 2460 2288 962 1498 548 1334 954 931 589 722 612 907 887 396 700 464 349 567 373 683 300 367 404 134 428 199 641 271 270 234 148 524 115 138 291 249 80 246 148 87 132 89
internal_count=5296 2836 2460 2288 962 1498 548 1334 954 931 589 722 612 907 887 396 700 464 349 567 373 683 300 367 404 134 428 199 641 271 270 234 148 524 115 138 291 249 80 246 148 87 132 89
is_linear=0
shrinkage=0.01


Tree=2
num_leaves=45
num_cat=0
split_feature=58 36 36 61 89 61 89 41 41 25 27 49 49 58 25 25 27 58 52 31 52 32 58 89 25 66 58 62 89 28 67 29 14 71 89 65 83 56 88 65 58 79 67 48
split_gain=4711.37 862.123 689.262 278.406 273.629 249.08 192.752 104.185 90.7981 90.3993 86.7194 74.2118 72.1451 70.1804 60.0131 59.5925 53.3235 51.1803 49.9028 49.8521 48.8173 39.608 38.0695 37.1349 36.0471 36.0257 35.6052 50.5546 35.3292 34.9122 36.5398 34.8529 33.3018 32.2812 31.3365 31.2836 30.659 30.2339 29.8244 48.8901 33.397 29.6035 29.3132 31.9949
threshold=1.0000000180025095e-35 -0.52049999999999985 0.41000000000000009 0.49463660353936534 0.095002129957217865 0.49463660353936534 -0.094888506011901436 0.99937666305253847 0.99937666305253847 0.50550000000000017 1.0000000180025095e-35 0.032709145092818442 0.032709145092818442 -0.64773306150250165 -0.81999999999999984 0.83400000000000007 -1.0000000180025095e-35 -0.2410058315400585 0.012341094283020304 0.48100000000000004 0.012341094283020304 1.018 0.26832400316334476 0.22111342759082786 -0.32049999999999995 0.3221246568395213 -0.2410058315400585 0.53323422083521022 -0.046073516138681402 -1.0000000180025095e-35 0.25374759849791262 -1.0000000180025095e-35 -0.00045452274398444231 0.46532700980976788 0.046169063372598275 0.78056379799251274 0.91202628605572145 0.91668040161330822 0.10706295228316735 0.78056379799251274 0.94798658656143331 0.023579750772128708 0.40938145650597957 0.19407829180921807
decision_type=2 2 2 2 2 2 2 2 2 2 2 2 2 2 2 2 2 2 2 2 2 2 2 2 2 2 2 2 2 2 2 2 2 2 2 2 2 2 2 2 2 2 2 2
left_child=1 3 6 17 10 22 7 11 12 32 24 -2 23 21 18 26 34 42 -13 -11 -17 -5 -4 -6 41 -24 27 -14 -12 -16 -31 36 -7 37 -8 -36 -29 -27 -32 40 -40 -3 -1 -44
right_child=2 4 5 13 8 9 16 -9 -10 19 28 14 15 -15 29 20 -18 -19 -20 -21 -22 -23 25 -25 -26 33 -28 31 -30 30 38 -33 -34 -35 35 -37 -38 -39 39 -41 -42 -43 43 -45
leaf_value=-0.010091128278432823 0.015435938189296934 -0.0073180815546713286 0.0040546185709536076 -0.022824369686949803 -0.0091298048220574864 0.018430952116862308 0.0006964487607550873 -0.011295472645759584 0.010736694845060509 0.016411823357565931 0.006262493934964055 -0.019531199954450133 -0.008128694339731039 -0.016558665149349568 0.0073399872852742271 0.019557074788957834 0.0045097602453703688 -0.0037442695483079426 0.0037052431099544292 0.026586424503048867 -0.0033779671678478402 -0.031702924731080648 0.019029339437683424 -0.018222079775296152 -0.0022580920322867906 0.0069852563585280567 -0.0048774854843693146 -0.025682949816808104 0.00015849565599372029 0.0023294922709465029 0.0093905945458405068 -0.011585019013086744 0.0089941824750697369 0.013262327953950683 -0.003766908411376385 -0.019641628742218017 -0.0080056737535274952 -0.016354741131265959 0.012763661246679657 0.034923647825534525 0.029704359357173624 -0.028455268144607544 -0.0095869870081303574 -0.022620230982235322
leaf_weight=164 167 124 73 285 75 183 198 25 24 59 145 9.9999999999999982 406 171 371 9.9999999999999982 306 92 122 262 129 61 60 112 334 74 173 40 274 34 105 118 47 134 72 14.999999999999998 12.999999999999998 5.9999999999999991 111 12.999999999999998 12.999999999999998 6.9999999999999991 31 48
leaf_count=164 167 124 73 285 75 183 198 25 24 59 145 10 406 171 371 10 306 92 122 262 129 61 60 112 334 74 173 40 274 34 105 118 47 134 72 15 13 6 111 13 13 7 31 48
internal_value=0 -0.00878444 0.0101271 -0.0171981 -0.00517134 0.0171083 0.00611361 0.0088542 -0.00850054 0.0212877 -0.00102867 0.00938669 -0.00892962 -0.0217995 0.00808987 -0.00774203 0.0016109 -0.0100967 0.00194491 0.0247163 -0.00172796 -0.0243897 0.0104717 -0.0145754 -0.00400179 0.0121814 -0.00885664 -0.0100497 0.00227086 0.00934356 0.0120368 -0.0146107 0.0165026 0.0102614 -0.00150156 -0.00650393 -0.021347 0.00523476 0.0134006 0.0164739 0.0145397 -0.00844755 -0.0125017 -0.0175059
internal_weight=0 2836 2460 852 1984 898 1562 971 1100 551 884 946 1076 517 779 889 591 335 132 321 139 346 347 187 465 274 750 577 419 647 276 171 230 214 285 87 53 80 242 137 124 131 243 79
internal_count=5296 2836 2460 852 1984 898 1562 971 1100 551 884 946 1076 517 779 889 591 335 132 321 139 346 347 187 465 274 750 577 419 647 276 171 230 214 285 87 53 80 242 137 124 131 243 79
is_linear=0
shrinkage=0.01


Tree=3
num_leaves=45
num_cat=0
split_feature=58 36 36 89 61 89 61 25 27 41 25 41 61 44 89 44 86 25 36 58 77 67 58 66 89 44 77 89 58 58 75 86 15 75 60 71 63 58 37 76 22 29 56 32
split_gain=4620.17 786.229 721.196 359.271 256.476 190.486 180.308 142.657 96.6663 89.888 88.8275 75.2189 75.0883 66.4409 55.2135 52.5947 48.9662 45.7593 45.0268 43.1313 42.6879 41.7488 40.6191 40.0313 38.9306 38.4546 38.4583 37.4254 37.0364 35.1535 33.8008 41.6196 33.4197 33.2402 32.7945 31.9817 31.4805 31.4782 29.5784 29.4819 29.282 28.9545 27.4873 27.3006
threshold=-1.0000000180025095e-35 0.81900000000000006 -0.33199999999999996 -0.094888506011901436 0.49463660353936534 0.095002129957217865 0.49463660353936534 -0.090499999999999983 -1.0000000180025095e-35 0.99937666305253847 -0.32049999999999995 0.99937666305253847 0.49463660353936534 0.80592170819078202 -0.22096754053974876 0.99937666305253847 0.69544430843329241 0.50550000000000017 0.81900000000000006 -0.2410058315400585 0.66137720323525928 0.25374759849791262 0.49541653982718731 0.3221246568395213 0.14972487108278115 0.80592170819078202 0.66137720323525928 0.046169063372598275 -0.2410058315400585 0.26832400316334476 0.54650510693034349 0.94220100045475241 0.0025204836189667364 0.45663295089851647 0.80407298542433348 0.46532700980976788 0.48109127764901544 -0.89296429437591318 0.80300000000000016 0.57529136277158377 0.004451249664846395 1.0000000180025095e-35 0.91668040161330822 1.018
decision_type=2 2 2 2 2 2 2 2 2 2 2 2 2 2 2 2 2 2 2 2 2 2 2 2 2 2 2 2 2 2 2 2 2 2 2 2 2 2 2 2 2 2 2 2
left_child=2 3 4 7 19 18 29 11 27 13 16 15 -9 21 32 22 -6 39 38 23 -15 -7 -2 -1 -18 33 -27 -5 30 -3 31 -23 -14 -24 -22 42 -31 -33 -4 -8 -35 -32 -25 -26
right_child=1 6 5 8 10 9 17 12 -10 -11 -12 -13 14 20 -16 -17 24 -19 -20 -21 34 28 25 35 43 26 -28 -29 -30 36 41 37 -34 40 -36 -37 -38 -39 -40 -41 -42 -43 -44 -45
leaf_value=-0.018852398383967354 0.0045325714716851363 0.0047015149113448229 -0.00072395536525337451 5.7369297287160796e-05 -0.016590976246546225 -0.0023692819319854857 0.01981186334453865 0.0082823676886726854 0.004307743292788802 0.010629327936718861 -0.013412125201448799 -0.011744279224764217 0.015398398424454389 -0.010141327159453026 0.010114090591222048 -0.010339640725595766 -0.018907767943219168 0.026327563727067575 0.0087170888982925753 -0.0034032484381268284 0.0040082099412878354 -0.0084664208721638157 0.0080796072171351891 -0.0070173530392584546 -0.024686893291771411 0.011841756045245207 0.0008481834600566001 -0.0061598394212715735 -0.0061424785885610626 0.020240001856499084 -0.020877507714288576 -0.023581929891370236 0.022632962129286768 0.017629750661270798 -0.0060957611629996328 -0.012878281575798685 0.010730363064567032 -0.011637708812690618 -0.0066177210497243375 -0.0029568034286300343 0.0067150480917189271 -0.012558591633032148 0.012434760006144643 -0.0320601497816317
leaf_weight=66 279 51 417 280 97 59 109 216 526 24 125 22 168 71 125 17 91 234 43 73 72 260 132 79 210 52 82 148 120 56 70 36 103 106 58 147 92 57 107 5.9999999999999991 32 104 7.9999999999999991 66
leaf_count=66 279 51 417 280 97 59 109 216 526 24 125 22 168 71 125 17 91 234 43 73 72 260 132 79 210 52 82 148 120 56 70 36 103 106 58 147 92 57 107 6 32 104 8 66
internal_value=0 0.008699 -0.0100286 0.00612219 -0.0167852 -0.0056896 0.0194577 0.00947323 0.00143635 -0.00847247 -0.0208942 0.00646247 0.0130251 -0.00897792 0.0156121 0.00703468 -0.0229098 0.0237891 -0.0011202 -0.0102968 -0.00390546 -0.0104221 0.00746713 -0.0119742 -0.0245799 0.00949373 0.00511435 -0.00209251 -0.0111564 0.0118614 -0.0122981 -0.01052 0.0181481 0.0116672 -0.000499716 -0.0100342 0.0143286 -0.0162613 -0.00192745 0.0186239 0.0150988 -0.0159053 -0.00522865 -0.0264501
internal_weight=0 2836 2460 2288 962 1498 548 1334 954 931 589 722 612 907 396 700 464 349 567 373 201 706 683 300 367 404 134 428 647 199 527 353 271 270 130 234 148 93 524 115 138 174 87 276
internal_count=5296 2836 2460 2288 962 1498 548 1334 954 931 589 722 612 907 396 700 464 349 567 373 201 706 683 300 367 404 134 428 647 199 527 353 271 270 130 234 148 93 524 115 138 174 87 276
is_linear=0
shrinkage=0.01


Tree=4
num_leaves=45
num_cat=0
split_feature=58 36 36 61 89 61 89 41 41 25 27 49 49 58 25 25 27 58 52 31 52 25 58 89 66 25 89 58 62 88 75 28 67 14 71 56 56 88 65 58 79 67 48 67
split_gain=4529.45 828.923 662.818 267.602 262.368 239.225 185.109 100.282 87.2103 87.0515 83.6736 71.8647 69.4142 67.9274 58.3045 57.7403 51.1881 49.0215 48.3131 47.9467 47.5538 38.1693 36.8068 35.9519 35.0762 34.7824 34.386 34.0704 48.8278 34.4505 35.5151 33.5982 35.595 32.3125 31.5934 30.219 29.5931 29.3959 47.632 32.6528 28.9107 28.5523 31.1547 27.9906
threshold=1.0000000180025095e-35 -0.52049999999999985 0.41000000000000009 0.49463660353936534 0.095002129957217865 0.49463660353936534 -0.094888506011901436 0.99937666305253847 0.99937666305253847 0.50550000000000017 1.0000000180025095e-35 0.032709145092818442 0.032709145092818442 -0.64773306150250165 -0.81999999999999984 0.83400000000000007 -1.0000000180025095e-35 -0.2410058315400585 0.012341094283020304 0.48100000000000004 0.012341094283020304 -0.66249999999999998 0.26832400316334476 0.22111342759082786 0.3221246568395213 -0.32049999999999995 -0.046073516138681402 -0.2410058315400585 0.53323422083521022 0.10706295228316735 0.47938978559839551 -1.0000000180025095e-35 0.25374759849791262 -0.00045452274398444231 0.46532700980976788 0.96729085490718159 0.91668040161330822 0.10706295228316735 0.78056379799251274 0.94798658656143331 0.023579750772128708 0.40938145650597957 0.19407829180921807 0.70395347521191487
decision_type=2 2 2 2 2 2 2 2 2 2 2 2 2 2 2 2 2 2 2 2 2 2 2 2 2 2 2 2 2 2 2 2 2 2 2 2 2 2 2 2 2 2 2 2
left_child=1 3 6 17 10 22 7 11 12 33 25 -2 23 21 18 27 35 41 -13 -11 -17 -5 -4 -6 -24 40 -12 28 -14 -30 -31 -16 -33 -7 36 -8 -26 -34 39 -39 -3 -1 -43 -15
right_child=2 4 5 13 8 9 16 -9 -10 19 26 14 15 43 31 20 -18 -19 -20 -21 -22 -23 24 -25 34 -27 -28 -29 29 30 -32 32 37 -35 -36 -37 -38 38 -40 -41 -42 42 -44 -45
leaf_value=-0.0098756483771480479 0.015154858019626783 -0.0071851377538405363 0.0039618757015017613 -0.026515323126731917 -0.0089305534601211555 0.018075344009767669 -0.00070063532030434112 -0.011089107275009155 0.010523034818470478 0.016091796813879983 0.0061652672552856905 -0.01926223524659872 -0.0079622170439315725 -0.014314632395348912 0.0071960974915795317 0.019341723453253509 0.0044215854538796366 -0.0036839836343879936 0.003601098612034846 0.026070064142744504 -0.0032945591419964106 -0.019667690137458099 0.018709832045560083 -0.017876829521597498 0.0068172646069748176 -0.0022213964631312534 0.00014329806672932623 -0.0047906135929603067 -0.0099221078511969804 -0.0083111371488674823 -0.022893148116523127 0.0022226938906618776 0.0091686281148078193 0.0087798028011271297 0.013027002321862019 -0.015283236036698023 -0.016274073608219624 0.012535575516102416 0.034411675104728111 0.029286456153942989 -0.028073534965515137 -0.0093793135605031441 -0.022240283099041941 -0.024816316688253032
leaf_weight=164 167 124 73 215 75 183 270 25 24 59 145 9.9999999999999982 406 140 371 9.9999999999999982 306 92 122 262 129 131 60 112 74 334 274 173 87 23 61 34 105 47 134 14.999999999999998 5.9999999999999991 111 12.999999999999998 12.999999999999998 6.9999999999999991 31 48 31
leaf_count=164 167 124 73 215 75 183 270 25 24 59 145 10 406 140 371 10 306 92 122 262 129 131 60 112 74 334 274 173 87 23 61 34 105 47 134 15 6 111 13 13 7 31 48 31
internal_value=0 -0.00861317 0.00992966 -0.0168632 -0.00507032 0.0167756 0.00599391 0.00867961 -0.00833029 0.0208715 -0.00101379 0.00920204 -0.00875081 -0.0213745 0.00792589 -0.00758592 0.00158136 -0.00990097 0.00186903 0.0242361 -0.00166605 -0.0239227 0.0102716 -0.0142888 0.0119527 -0.00393423 0.00222727 -0.00868306 -0.00985012 -0.0143325 -0.0189005 0.0091616 0.0118036 0.0161758 0.0100582 -0.00146814 0.00508541 0.0131497 0.0162009 0.0142917 -0.00830131 -0.0122547 -0.0171936 -0.0162184
internal_weight=0 2836 2460 852 1984 898 1562 971 1100 551 884 946 1076 517 779 889 591 335 132 321 139 346 347 187 274 465 419 750 577 171 84 647 276 230 214 285 80 242 137 124 131 243 79 171
internal_count=5296 2836 2460 852 1984 898 1562 971 1100 551 884 946 1076 517 779 889 591 335 132 321 139 346 347 187 274 465 419 750 577 171 84 647 276 230 214 285 80 242 137 124 131 243 79 171
is_linear=0
shrinkage=0.01


Tree=5
num_leaves=45
num_cat=0
split_feature=58 36 36 89 61 89 61 25 27 41 25 61 41 44 49 89 44 86 36 25 58 89 86 66 89 89 88 58 65 15 71 51 76 37 86 33 56 32 58 25 87 14 25 43
split_gain=4440.97 756.363 693.07 344.823 246.546 182.91 172.847 137.423 92.9002 86.3622 86.1376 72.5959 72.2606 64.8711 63.3611 53.7857 50.8463 47.9158 43.8176 43.8135 41.5686 39.7264 44.9947 38.8663 37.4187 36.4681 34.81 33.7778 33.0579 32.5774 31.1844 30.8911 28.7986 28.5804 28.4723 26.9935 26.9057 26.6935 26.4994 26.8261 25.9262 25.8714 25.6459 29.7081
threshold=-1.0000000180025095e-35 0.81900000000000006 -0.33199999999999996 -0.094888506011901436 0.49463660353936534 0.095002129957217865 0.49463660353936534 -0.090499999999999983 -1.0000000180025095e-35 0.99937666305253847 -0.32049999999999995 0.49463660353936534 0.99937666305253847 0.99937666305253847 0.083319598386691909 -0.22096754053974876 0.99937666305253847 0.69544430843329241 0.81900000000000006 0.50550000000000017 -0.2410058315400585 -0.22096754053974876 0.94220100045475241 0.3221246568395213 0.14972487108278115 0.046169063372598275 0.11254943650237645 0.26832400316334476 0.56018265202439355 0.0025204836189667364 0.46532700980976788 0.38447367005540317 0.57529136277158377 0.80300000000000016 0.94220100045475241 0.76900000000000013 0.91668040161330822 1.018 -0.45733768325631657 0.14350000000000002 0.096008212839728116 0.0020644136465364543 0.37300000000000005 0.19407829180921807
decision_type=2 2 2 2 2 2 2 2 2 2 2 2 2 2 2 2 2 2 2 2 2 2 2 2 2 2 2 2 2 2 2 2 2 2 2 2 2 2 2 2 2 2 2 2
left_child=2 3 4 7 20 18 27 12 25 13 17 -9 16 14 38 29 21 -6 33 32 23 22 -2 -1 -19 -5 -24 -3 -16 -13 36 -29 -8 40 -30 -27 -25 -26 -7 -40 -4 -12 -10 -44
right_child=1 6 5 8 10 9 19 11 42 -11 41 15 -14 -15 28 -17 -18 24 -20 -21 -22 -23 26 30 37 35 -28 31 34 -31 -32 -33 -34 -35 -36 -37 -38 -39 39 -41 -42 -43 43 -45
leaf_value=-0.018518301643939181 0.0078416757346098567 0.0046251433417566273 0.0024457998906727879 7.3356681459699753e-05 -0.016218559324126882 -0.015988062771310093 0.019441778755174319 0.0081069567792561702 0.003202166311597714 0.010417804773896934 -0.0094019078122917574 0.015102179165585854 -0.011515945521267978 0.0090091573325917131 -0.0054761821939343855 0.0098875588119030008 -0.0101930587733274 -0.018560432962827632 0.0086032767104374814 0.025805756610810249 -0.0033266692676211461 0.004239048346375617 -0.0059085682096580664 -0.0068537664675755033 -0.024211365616747308 -0.0046295889325201848 0.019414072532386504 0.011329198103363906 -0.0092107384851003778 0.022244997519629023 -0.012637764225986337 0.021699753680672403 -0.0030615111564596493 -0.0065078367935232475 -0.021872575737928092 -0.01878065863251686 0.012391454959288241 -0.03150217415256934 -0.012974616182347139 -0.0012607756327709246 -0.002681760085236593 -0.01868834511935711 0.015943282737925245 0.0043958801194094125
leaf_weight=66 360 51 160 280 97 157 109 216 433 24 75 168 22 20 350 125 17 91 43 234 73 260 5.9999999999999991 79 210 133 57 109 272 103 147 39 5.9999999999999991 107 19 14.999999999999998 7.9999999999999991 66 60 29 257 50 37 56
leaf_count=66 360 51 160 280 97 157 109 216 433 24 75 168 22 20 350 125 17 91 43 234 73 260 6 79 210 133 57 109 272 103 147 39 6 107 19 15 8 66 60 29 257 50 37 56
internal_value=0 0.00852864 -0.0098322 0.00600123 -0.0164557 -0.00557864 0.019081 0.0092842 0.00141059 -0.00830561 -0.0204844 0.0127703 0.00632919 -0.00880104 -0.00920263 0.015314 0.00689004 -0.0224692 -0.00110103 0.0233219 -0.0100942 0.00731524 0.00920604 -0.0117409 -0.0241213 -0.00204884 0.0170024 0.0116435 -0.0075469 0.017817 -0.00982935 0.014062 0.0182677 -0.00189737 -0.0100375 -0.00606382 -0.00508409 -0.0259548 -0.0135169 -0.00915775 -0.000714351 -0.0131165 0.00422549 0.00899001
internal_weight=0 2836 2460 2288 962 1498 548 1334 954 931 589 612 722 907 887 396 700 464 567 349 373 683 423 300 367 428 63 199 641 271 234 148 115 524 291 148 87 276 246 89 417 125 526 93
internal_count=5296 2836 2460 2288 962 1498 548 1334 954 931 589 612 722 907 887 396 700 464 567 349 373 683 423 300 367 428 63 199 641 271 234 148 115 524 291 148 87 276 246 89 417 125 526 93
is_linear=0
shrinkage=0.01


Tree=6
num_leaves=45
num_cat=0
split_feature=58 36 36 61 89 61 89 41 41 25 27 49 25 58 25 89 88 27 67 58 52 31 44 76 32 58 66 25 89 28 67 14 71 67 89 65 56 88 65 58 79 66 72 42
split_gain=4354.69 796.753 637.266 257.104 251.601 229.761 177.776 96.5332 83.7722 83.7036 80.707 69.5623 67.0272 65.8233 56.9397 51.8436 72.2548 49.1173 47.7254 46.9358 46.7071 46.2224 44.1156 38.0482 37.3031 35.5589 34.2054 33.5843 33.4194 32.5645 34.6735 31.3729 30.8554 30.0322 29.578 30.1718 28.9786 28.841 46.442 31.8817 28.2147 27.8876 27.7985 27.5149
threshold=1.0000000180025095e-35 -0.52049999999999985 0.41000000000000009 0.49463660353936534 0.095002129957217865 0.49463660353936534 -0.094888506011901436 0.99937666305253847 0.99937666305253847 0.50550000000000017 1.0000000180025095e-35 0.032709145092818442 0.68450000000000011 -0.64773306150250165 -0.81999999999999984 0.22111342759082786 0.10706295228316735 -1.0000000180025095e-35 0.40938145650597957 -0.2410058315400585 0.012341094283020304 0.48100000000000004 0.99937666305253847 0.45907266720159584 1.018 0.26832400316334476 0.3221246568395213 -0.32049999999999995 -0.046073516138681402 -1.0000000180025095e-35 0.25374759849791262 -0.00045452274398444231 0.46532700980976788 0.70395347521191487 0.046169063372598275 0.78056379799251274 0.91668040161330822 0.10706295228316735 0.78056379799251274 0.94798658656143331 0.023579750772128708 0.47130586784146106 0.48711248151816466 0.98765890571697967
decision_type=2 2 2 2 2 2 2 2 2 2 2 2 2 2 2 2 2 2 2 2 2 2 2 2 2 2 2 2 2 2 2 2 2 2 2 2 2 2 2 2 2 2 2 2
left_child=1 3 6 19 10 25 7 11 12 31 27 43 15 24 20 -6 23 34 -18 41 -13 -11 -14 33 -5 -4 -27 40 -12 -16 -31 -7 36 -17 -8 -36 -28 -32 39 -39 -3 42 -1 -2
right_child=2 4 5 13 8 9 17 -9 -10 21 28 14 22 -15 29 16 18 -19 -20 -21 -22 -23 -24 -25 -26 26 32 -29 -30 30 37 -33 -34 -35 35 -37 -38 38 -40 -41 -42 -43 -44 -45
leaf_value=-0.013152873458597681 0.013698965438774652 -0.007056281493991734 0.0038730235263858348 -0.021945032204713739 -0.0070711834554284623 0.017730164335407011 0.0007010751314175484 -0.010886604011058808 0.010313626515368622 0.015765713646502821 0.0060658146214575097 -0.018996546864509582 -0.0046495825430688757 -0.015880086962242572 0.0070522054320708363 -0.0094972714416993158 -0.008823027581658106 0.0043349909220268233 -0.018643360331228803 -0.0036261474157926504 0.0034835641930398881 0.02556291351990618 0.019247099636122585 -0.0051371251184058279 -0.030561376331282444 0.01839996023481702 0.0066557985389403794 -0.0021846539801834322 0.00012908648546567581 0.0021322005784467739 0.0089735215049281357 0.0085707719338701128 0.012790315218075221 -0.022754126608371738 -0.0036064169063077618 -0.019196508526802065 -0.016194512955844401 0.012318637263835282 0.033920968037385209 0.028870556813019973 -0.027691724300384524 -0.0089317142971812331 -0.025514733985714289 0.02884887511913593
leaf_weight=87 154 124 73 285 368 183 198 25 24 59 145 9.9999999999999982 225 171 371 54 69 306 175 92 122 262 7.9999999999999991 152 61 60 74 334 274 34 105 47 134 25 72 14.999999999999998 5.9999999999999991 111 12.999999999999998 12.999999999999998 6.9999999999999991 133 23 12.999999999999998
leaf_count=87 154 124 73 285 368 183 198 25 24 59 145 10 225 171 371 54 69 306 175 92 122 262 8 152 61 60 74 334 274 34 105 47 134 25 72 15 6 111 13 13 7 133 23 13
internal_value=0 -0.00844538 0.00973622 -0.0165337 -0.00497195 0.0164489 0.00587708 0.00850904 -0.00816434 0.020463 -0.000999528 0.00902161 -0.00857649 -0.0209557 0.00776607 -0.00988864 -0.0120714 0.00155281 -0.0158663 -0.00970944 0.00178053 0.0237622 -0.0038291 -0.00806298 -0.0234641 0.0100749 0.0117272 -0.00386773 0.00218356 0.00898724 0.0115883 0.0158585 0.00985638 -0.0136925 -0.00143437 -0.00629436 0.00494203 0.0129169 0.0159391 0.0140539 -0.00815894 -0.0120126 -0.0157376 0.0148783
internal_weight=0 2836 2460 852 1984 898 1562 971 1100 551 884 946 1076 517 779 843 475 591 244 335 132 321 233 231 346 347 274 465 419 647 276 230 214 79 285 87 80 242 137 124 131 243 110 167
internal_count=5296 2836 2460 852 1984 898 1562 971 1100 551 884 946 1076 517 779 843 475 591 244 335 132 321 233 231 346 347 274 465 419 647 276 230 214 79 285 87 80 242 137 124 131 243 110 167
is_linear=0
shrinkage=0.01


Tree=7
num_leaves=45
num_cat=0
split_feature=58 36 36 89 61 89 61 25 27 25 41 61 41 44 89 44 86 36 25 77 58 67 89 86 66 89 26 58 89 88 58 15 60 72 63 71 76 37 21 86 33 32 36 3
split_gain=4269.22 727.586 666.136 330.84 237.1 175.658 165.683 132.292 89.3263 83.7265 82.9785 70.155 69.4254 62.9907 52.3174 49.1531 46.8458 42.6422 41.9465 41.3201 40.098 40.09 38.7695 43.7825 37.7078 36.0679 35.9342 37.7696 35.0567 33.9739 32.4448 31.6177 31.2265 30.3054 30.1457 29.6685 28.132 27.6167 27.5053 26.8506 26.0757 25.7521 25.45 25.4408
threshold=-1.0000000180025095e-35 0.81900000000000006 -0.33199999999999996 -0.094888506011901436 0.49463660353936534 0.095002129957217865 0.49463660353936534 -0.090499999999999983 -1.0000000180025095e-35 -0.32049999999999995 0.99937666305253847 0.49463660353936534 0.99937666305253847 0.80592170819078202 -0.22096754053974876 0.99937666305253847 0.69544430843329241 0.81900000000000006 0.50550000000000017 0.66137720323525928 -0.2410058315400585 0.25374759849791262 -0.22096754053974876 0.94220100045475241 0.47130586784146106 0.14972487108278115 -0.22199999999999998 -0.45733768325631657 0.046169063372598275 0.11254943650237645 0.26832400316334476 0.0025204836189667364 0.80407298542433348 0.45455317703024128 0.48109127764901544 0.46532700980976788 0.57529136277158377 0.80300000000000016 0.0023153592322684544 0.94220100045475241 0.76900000000000013 1.018 0.99700000000000011 0.43680623373309452
decision_type=2 2 2 2 2 2 2 2 2 2 2 2 2 2 2 2 2 2 2 2 2 2 2 2 2 2 2 2 2 2 2 2 2 2 2 2 2 2 2 2 2 2 2 2
left_child=2 3 4 7 20 17 30 12 28 16 13 -9 15 21 31 22 -6 37 36 -15 24 -7 23 -2 33 -18 38 39 -5 -25 -3 -13 -21 -1 -32 -26 -8 -4 -23 -28 -30 -27 -20 -10
right_child=1 6 5 8 9 10 18 11 43 -11 -12 14 -14 19 -16 -17 25 -19 42 32 -22 26 -24 29 35 41 27 -29 40 -31 34 -33 -34 -35 -36 -37 -38 -39 -40 -41 -42 -43 -44 -45
leaf_value=-0.012107899610561378 0.0076894570996131131 0.0045515637464054364 -0.0007048366359913526 7.5115989935251748e-05 -0.015860853038497807 -0.0021430702595300658 0.019078905900957389 0.0079350594811505824 0.0060335542300981914 -0.012820417246967555 0.010210490319877863 0.01481397110503167 -0.011291920176961205 -0.0098242513889374699 0.0096680454061925415 -0.01004688762840541 -0.018215284331978023 0.0084911016976937301 0.023292449752402584 0.0040604756936146362 -0.0032485210615503667 -0.018451677578374407 0.0041285101558225087 -0.0059082419301072758 -0.0022091025076806546 -0.023762547906044693 -0.0097644611678429343 -0.0055130110513903416 -0.0045324916467490723 0.01910846984634797 0.019585023289463217 0.021850790448161295 -0.005798987537815139 -0.022020980898911753 0.010279189550479793 -0.011321159374041885 -0.0031624003748099011 -0.0063998121764754579 -0.01100966950878501 -0.017212096530766715 -0.018440910875797273 -0.030923634650129261 0.030727499520021771 0.0015833000807042523
leaf_weight=98 360 51 417 280 97 59 109 216 303 125 24 168 22 71 125 17 91 43 171 72 73 88 260 5.9999999999999991 55 210 209 173 133 57 56 103 58 45 92 102 5.9999999999999991 107 114 63 14.999999999999998 66 63 223
leaf_count=98 360 51 417 280 97 59 109 216 303 125 24 168 22 71 125 17 91 43 171 72 73 88 260 6 55 210 209 173 133 57 56 103 58 45 92 102 6 107 114 63 15 66 63 223
internal_value=0 0.00836208 -0.00964019 0.00588323 -0.0161337 -0.0054701 0.0187118 0.00909894 0.00138663 -0.0200844 -0.00814246 0.0125194 0.00619963 -0.0086281 0.0150199 0.00674936 -0.0220414 -0.00108215 0.0228638 -0.0036891 -0.00989523 -0.0100342 0.00716742 0.00903531 -0.0115126 -0.0236749 -0.0107538 -0.00916603 -0.00200561 0.0167259 0.01143 0.0174885 -0.000338362 -0.0152274 0.0138003 -0.00812904 0.0179185 -0.00186774 -0.0142517 -0.0114895 -0.00594213 -0.025475 0.0252942 0.00414685
internal_weight=0 2836 2460 2288 962 1498 548 1334 954 589 931 612 722 907 396 700 464 567 349 201 373 706 683 423 300 367 647 445 428 63 199 271 130 143 148 157 115 524 202 272 148 276 234 526
internal_count=5296 2836 2460 2288 962 1498 548 1334 954 589 931 612 722 907 396 700 464 567 349 201 373 706 683 423 300 367 647 445 428 63 199 271 130 143 148 157 115 524 202 272 148 276 234 526
is_linear=0
shrinkage=0.01


Tree=8
num_leaves=45
num_cat=0
split_feature=58 36 36 61 89 61 89 41 25 41 27 49 49 58 25 25 27 52 52 58 31 25 58 89 66 89 25 58 62 88 75 28 67 14 71 56 56 88 65 58 79 77 67 48
split_gain=4186.82 766.09 612.782 247 241.187 220.716 170.751 92.9255 80.5312 80.4607 77.9276 67.3346 64.8324 63.7508 55.6091 54.6798 47.1198 45.1542 44.9766 44.9663 44.4942 36.2276 34.3634 33.9403 33.3185 32.496 32.3937 31.9272 46.5764 32.9728 34.2246 31.5634 33.7766 30.4503 30.1702 28.9337 28.3936 28.2962 45.2825 31.1287 27.5065 27.4229 27.3543 29.8807
threshold=1.0000000180025095e-35 -0.52049999999999985 0.41000000000000009 0.49463660353936534 0.095002129957217865 0.49463660353936534 -0.094888506011901436 0.99937666305253847 0.50550000000000017 0.99937666305253847 1.0000000180025095e-35 0.032709145092818442 0.032709145092818442 -0.64773306150250165 -0.81999999999999984 0.83400000000000007 -1.0000000180025095e-35 0.012341094283020304 0.012341094283020304 -0.2410058315400585 0.48100000000000004 -0.66249999999999998 0.26832400316334476 0.22111342759082786 0.3221246568395213 -0.046073516138681402 -0.32049999999999995 -0.2410058315400585 0.53323422083521022 0.10706295228316735 0.47938978559839551 -1.0000000180025095e-35 0.25374759849791262 -0.00045452274398444231 0.46532700980976788 0.96729085490718159 0.91668040161330822 0.10706295228316735 0.78056379799251274 0.94798658656143331 0.023579750772128708 0.41679548568219876 0.40938145650597957 0.19407829180921807
decision_type=2 2 2 2 2 2 2 2 2 2 2 2 2 2 2 2 2 2 2 2 2 2 2 2 2 2 2 2 2 2 2 2 2 2 2 2 2 2 2 2 2 2 2 2
left_child=1 3 6 19 10 22 7 11 33 12 26 -2 23 21 17 27 35 -13 -17 42 -10 -5 -4 -6 -24 -12 40 28 -14 -30 -31 -16 -33 -7 36 -8 -26 -34 39 -39 -3 -37 -1 -44
right_child=2 4 5 13 9 8 16 -9 20 -11 25 14 15 -15 31 18 -18 -19 -20 -21 -22 -23 24 -25 34 -27 -28 -29 29 30 -32 32 37 -35 -36 41 -38 38 -40 -41 -42 -43 43 -45
leaf_value=-0.0094489911589601145 0.014606910988822313 -0.0069298249335523936 0.0037851646449895294 -0.025540776506694424 -0.0085505165149768192 0.017391015788326497 -0.00065034256841452729 -0.010687891221046448 0.015453974253545373 0.010108385446170967 0.0059703266287045873 -0.018734463334083559 -0.007632373407458334 -0.015551317729796583 0.0069112519737090814 0.018912618882954119 0.0042494847748300755 0.0033687871486925685 -0.0031017340733371888 -0.00356903166616457 0.025066281961390879 -0.018869588342388624 0.018091863911909364 -0.017242904022069915 0.0064966784817216969 0.00011618829614408043 -0.0021511264388521991 -0.0045784510785681493 -0.009539287548857453 -0.0079278250562998913 -0.022242460617581838 0.0020440819878678987 0.0087824229936869364 0.0083672988478173602 0.012560946359924639 -0.024480302199721336 -0.016121827134241661 0.012105734412902379 0.033437870098994328 0.028461032784902134 -0.027304634707314625 0.0042022355720400814 -0.008958936828759409 -0.02155419838226711
leaf_weight=164 167 124 73 215 75 183 270 25 59 24 145 9.9999999999999982 406 171 371 9.9999999999999982 306 122 129 92 262 131 60 112 74 274 334 173 87 23 61 34 105 47 134 9.9999999999999982 5.9999999999999991 111 12.999999999999998 12.999999999999998 6.9999999999999991 4.9999999999999991 31 48
leaf_count=164 167 124 73 215 75 183 270 25 59 24 145 10 406 171 371 10 306 122 129 92 262 131 60 112 74 274 334 173 87 23 61 34 105 47 134 10 6 111 13 13 7 5 31 48
internal_value=0 -0.00828099 0.00954671 -0.0162122 -0.00487506 0.0161292 0.00576243 0.00834187 0.0200635 -0.00800069 -0.000985717 0.00884477 -0.00840461 -0.0205463 0.0076095 -0.00727881 0.00152446 0.0016943 -0.00151797 -0.00952333 0.0232995 -0.023015 0.0098819 -0.0137567 0.0115062 0.00214208 -0.0038041 -0.00834648 -0.00947624 -0.0138541 -0.018323 0.00881631 0.0113771 0.015547 0.00965977 -0.00140135 0.00480029 0.0126883 0.0156819 0.0138204 -0.00801856 -0.0149195 -0.0117776 -0.0166118
internal_weight=0 2836 2460 852 1984 898 1562 971 551 1100 884 946 1076 517 779 889 591 132 139 335 321 346 347 187 274 419 465 750 577 171 84 647 276 230 214 285 80 242 137 124 131 15 243 79
internal_count=5296 2836 2460 852 1984 898 1562 971 551 1100 884 946 1076 517 779 889 591 132 139 335 321 346 347 187 274 419 465 750 577 171 84 647 276 230 214 285 80 242 137 124 131 15 243 79
is_linear=0
shrinkage=0.01


Tree=9
num_leaves=45
num_cat=0
split_feature=58 36 36 89 61 89 61 62 31 25 41 44 49 66 38 58 32 86 46 25 36 25 58 66 89 89 66 30 65 58 23 31 51 72 71 32 86 76 58 28 66 23 56 32
split_gain=4103.69 699.935 640.172 318.38 227.936 168.678 158.819 122.926 114.584 81.1613 79.7242 61.2533 59.6223 56.7466 72.9467 52.1231 50.6072 45.8939 43.9036 42.476 41.4992 40.1596 38.6496 36.7641 34.7162 33.568 35.3045 32.362 31.8143 31.1724 30.9398 30.8053 29.6076 29.3929 28.892 27.7072 27.5741 27.4805 27.4139 27.0042 26.7513 26.5708 26.5657 26.1746
threshold=-1.0000000180025095e-35 0.81900000000000006 -0.33199999999999996 -0.14936925800275266 0.49463660353936534 0.095002129957217865 0.49463660353936534 0.49244445348166416 0.13950000000000004 -0.32049999999999995 0.99937666305253847 0.99937666305253847 0.083319598386691909 0.43620496546093229 0.012341094283020304 0.26832400316334476 1.0000000180025095e-35 0.69544430843329241 0.91668040161330822 0.25650000000000006 0.81900000000000006 0.50550000000000017 -0.2410058315400585 0.47130586784146106 0.14972487108278115 0.046169063372598275 0.23349467037423244 0.26450000000000007 0.56018265202439355 0.26832400316334476 0.0046354767073105161 -1.0204999999999997 0.38447367005540317 0.45455317703024128 0.46532700980976788 -0.14749999999999996 0.94220100045475241 0.57529136277158377 0.49541653982718731 0.6090000000000001 0.28358724777515393 -0.0044477968757164641 0.80592170819078202 0.59400000000000008
decision_type=2 2 2 2 2 2 2 2 2 2 2 2 2 2 2 2 2 2 2 2 2 2 2 2 2 2 2 2 2 2 2 2 2 2 2 2 2 2 2 2 2 2 2 2
left_child=2 3 4 7 22 20 29 13 25 17 11 12 -7 -2 -15 -10 19 -6 38 -9 39 37 23 33 -19 -5 35 -17 -14 -3 -21 -16 -31 -1 -25 -27 -30 -8 41 -4 -41 -18 -28 -40
right_child=1 6 5 8 9 10 21 16 15 -11 -12 -13 28 14 31 27 18 24 -20 30 -22 -23 -24 34 -26 26 42 -29 36 32 -32 -33 -34 -35 -36 -37 -38 -39 43 40 -42 -43 -44 -45
leaf_value=-0.011884170515339215 0.011932797439240075 0.0044779406654118911 -0.0030154445703642007 0.0011885175371723316 -0.015500124642222198 -0.013033492539831149 0.018722677588326124 0.012440617371785596 0.0033603758902305313 -0.012538919260948895 0.010007301531732083 0.0088482651035301386 -0.0052108823681715878 -0.008578675455462776 0.017729166114614125 0.0017894332990736554 -0.0034296600152738392 -0.017878038413658901 -0.019309430181980135 0.022534143801676027 0.0083805232661841225 0.024792672353995661 -0.0031748745409287005 -0.0021054175968535922 -0.025000396542575049 0.002589268726961952 -0.0036021174281694705 0.012074168303767872 -0.0088719655653146812 0.010868112913977971 0.0090032891016453512 0.0052634503854449193 0.02102093264472504 -0.021646862633940247 -0.011097431350134166 -0.020683981070393011 -0.021332471802046428 -0.0032595679784814518 0.017411915095857319 0.023077021638552346 0.0013668100496842747 0.009287862426489997 0.0066424429078275962 0.0081433391112834229
leaf_weight=98 143 51 413 523 97 246 109 137 285 125 24 20 350 38 21 38 20 91 4.9999999999999991 109 43 234 73 55 276 7.0000000000000027 162 157 272 109 20 354 39 45 102 19 19 5.9999999999999991 78 5.9999999999999991 105 92 30 50
leaf_count=98 143 51 413 523 97 246 109 137 285 125 24 20 350 38 21 38 20 91 5 109 43 234 73 55 276 7 162 157 272 109 20 354 39 45 102 19 19 6 78 6 105 92 30 50
internal_value=0 0.00819837 -0.00945146 0.00576708 -0.0158172 -0.00536344 0.0183495 0.00975751 0.00227994 -0.0196908 -0.00798217 -0.00845819 -0.00884841 0.00650355 0.00462369 0.00608615 0.013298 -0.0216175 0.0100189 0.0163182 -0.00106356 0.0224146 -0.00970043 -0.0112883 -0.0232344 -0.000185622 -0.0034823 0.01007 -0.00724228 0.0112202 0.0204363 0.00596153 0.0135435 -0.0149563 -0.00794736 -0.0144181 -0.00968554 0.0175758 0.0106299 -0.00183855 0.00254034 0.00701688 -0.0020014 0.0137914
internal_weight=0 2836 2460 2288 962 1498 548 1067 1221 589 931 907 887 556 413 480 511 464 245 266 567 349 373 300 367 741 218 195 641 199 129 375 148 143 157 26 291 115 240 524 111 112 192 128
internal_count=5296 2836 2460 2288 962 1498 548 1067 1221 589 931 907 887 556 413 480 511 464 245 266 567 349 373 300 367 741 218 195 641 199 129 375 148 143 157 26 291 115 240 524 111 112 192 128
is_linear=0
shrinkage=0.01


Tree=10
num_leaves=45
num_cat=0
split_feature=58 36 36 61 89 61 89 41 41 25 27 49 25 58 25 89 88 27 67 52 58 31 44 76 32 58 66 89 25 71 31 14 67 56 67 79 77 67 48 42 33 69 65 44
split_gain=4024.51 736.74 588.676 237.157 231.363 212.436 164.323 89.9808 77.2787 77.2128 75.3811 65.1198 62.9588 61.7793 54.2194 49.264 69.4862 45.6751 45.3179 43.7359 43.0139 42.9873 41.4618 36.5638 35.5498 33.0604 32.4439 31.4405 31.4314 31.0489 30.3998 29.4976 29.0044 28.0539 27.0029 26.7942 26.6088 26.5444 29.0668 26.3211 25.8282 25.6244 25.1178 24.8114
threshold=1.0000000180025095e-35 -0.52049999999999985 0.41000000000000009 0.49463660353936534 0.095002129957217865 0.49463660353936534 -0.094888506011901436 0.99937666305253847 0.99937666305253847 0.50550000000000017 1.0000000180025095e-35 0.032709145092818442 0.68450000000000011 -0.64773306150250165 -0.81999999999999984 0.22111342759082786 0.10706295228316735 -1.0000000180025095e-35 0.40938145650597957 0.012341094283020304 -0.2410058315400585 0.48100000000000004 0.99937666305253847 0.45907266720159584 1.018 0.26832400316334476 0.47130586784146106 -0.046073516138681402 -0.32049999999999995 0.46532700980976788 -1.0204999999999997 -0.00045452274398444231 0.70395347521191487 0.96729085490718159 0.70395347521191487 0.023579750772128708 0.41679548568219876 0.40938145650597957 0.19407829180921807 0.98765890571697967 1.0350000000000001 0.62915681921094946 0.78056379799251274 0.80592170819078202
decision_type=2 2 2 2 2 2 2 2 2 2 2 2 2 2 2 2 2 2 2 2 2 2 2 2 2 2 2 2 2 2 2 2 2 2 2 2 2 2 2 2 2 2 2 2
left_child=1 3 6 20 10 25 7 11 12 31 28 39 15 24 19 -6 23 33 -18 -13 37 -11 -14 32 -5 -4 -27 42 35 -28 -16 -7 -17 -8 41 -3 -35 -1 -39 -2 -19 -15 -12 -32
right_child=2 4 5 13 8 9 17 -9 -10 21 27 14 22 34 30 16 18 40 -20 -21 -22 -23 -24 -25 -26 26 29 -29 -30 -31 43 -33 -34 36 -36 -37 -38 38 -40 -41 -42 -43 -44 -45
leaf_value=-0.009253357331745508 0.013189142462011281 -0.0068183348819823757 0.0037025210060408877 -0.02109083103025822 -0.0067612336864010057 0.017063822615191931 -0.00064780167060800732 -0.010544669890403749 0.009907228356848161 0.015128447151411388 0.0043053901718524247 -0.018484940946102143 -0.0044303601720525575 -0.01530248334360357 0.01800284818379265 -0.0091003807480619456 -0.0084936209689771783 0.0046819700932158436 -0.01806305764208415 0.0032683940747844395 -0.0035188498573995239 0.024576583988111435 0.018736414704471828 -0.0048363801771713613 -0.029502248910606883 0.015005154772587712 0.0019685613922774793 0.00011401282006493994 -0.0021132497581033576 0.011521874149378978 0.0092023216603377925 0.0081823943745582654 -0.022128414928913119 -0.024116150319576261 -0.023671239052088029 -0.026927616766520907 0.0041374201551079752 -0.0087614034392660672 -0.021183957030686238 0.028006744017967811 -0.012513265634576481 -0.0039508999185636643 0.016927627974914178 0.0043090516197579823
leaf_weight=164 154 124 73 285 368 183 270 25 24 59 127 9.9999999999999982 225 116 33 54 69 297 175 122 92 262 7.9999999999999991 152 61 126 53 274 334 95 482 47 25 9.9999999999999982 31 6.9999999999999991 4.9999999999999991 31 48 12.999999999999998 8.9999999999999982 24 18 132
leaf_count=164 154 124 73 285 368 183 270 25 24 59 127 10 225 116 33 54 69 297 175 122 92 262 8 152 61 126 53 274 334 95 482 47 25 10 31 7 5 31 48 13 9 24 18 132
internal_value=0 -0.0081189 0.00935983 -0.0158967 -0.00477884 0.0158115 0.00565073 0.00818115 -0.00784014 0.0196713 -0.000969537 0.00867602 -0.00823599 -0.0201436 0.00746124 -0.0095077 -0.0116355 0.00149331 -0.0153569 0.00162041 -0.00934244 0.02284 -0.00363493 -0.00770459 -0.0225738 0.00968255 0.0112758 0.00210673 -0.00374149 0.00810076 0.00865287 0.0152489 -0.0132232 -0.0013873 -0.0152264 -0.00789288 -0.0146983 -0.0115473 -0.0163093 0.0143426 0.00417623 -0.0133565 0.00587229 0.00815035
internal_weight=0 2836 2460 852 1984 898 1562 971 1100 551 884 946 1076 517 779 843 475 591 244 132 335 321 233 231 346 347 274 419 465 148 647 230 79 285 171 131 15 243 79 167 306 140 145 614
internal_count=5296 2836 2460 852 1984 898 1562 971 1100 551 884 946 1076 517 779 843 475 591 244 132 335 321 233 231 346 347 274 419 465 148 647 230 79 285 171 131 15 243 79 167 306 140 145 614
is_linear=0
shrinkage=0.01


Tree=11
num_leaves=45
num_cat=0
split_feature=58 36 36 89 61 89 61 62 31 25 41 44 66 38 58 58 36 77 3 67 25 12 58 33 66 26 58 78 89 66 29 88 58 31 64 66 71 51 32 76 38 21 89 56
split_gain=3945.14 673.496 615.235 306.578 219.204 161.95 152.117 118.665 110.506 79.312 76.6013 59.6891 54.9416 70.2576 50.1815 49.1194 40.2747 40.0296 39.0249 38.4993 38.4422 38.1314 37.287 36.4235 35.8222 34.6834 36.1866 34.5997 32.3851 34.1582 31.7665 31.0434 29.9608 29.8752 29.7714 29.6196 29.36 28.8207 26.9146 26.8459 26.5154 26.4433 26.1279 26.1108
threshold=-1.0000000180025095e-35 0.81900000000000006 -0.33199999999999996 -0.14936925800275266 0.49463660353936534 0.095002129957217865 0.49463660353936534 0.49244445348166416 0.13950000000000004 -0.66249999999999998 0.99937666305253847 0.80592170819078202 0.43620496546093229 0.012341094283020304 0.49541653982718731 0.26832400316334476 0.81900000000000006 0.66137720323525928 0.081898186460784991 0.25374759849791262 0.50550000000000017 0.0055955381899605913 -0.2410058315400585 0.12300000000000001 0.3221246568395213 -0.22199999999999998 -0.45733768325631657 0.63011153749301674 0.046169063372598275 0.23349467037423244 0.21700000000000003 0.10706295228316735 0.26832400316334476 -1.0204999999999997 0.5180144536721053 0.28358724777515393 0.46532700980976788 0.38447367005540317 -0.14749999999999996 0.57529136277158377 0.012341094283020304 0.0023153592322684544 -0.14936925800275266 0.91668040161330822
decision_type=2 2 2 2 2 2 2 2 2 2 2 2 2 2 2 2 2 2 2 2 2 2 2 2 2 2 2 2 2 2 2 2 2 2 2 2 2 2 2 2 2 2 2 2
left_child=2 3 4 7 22 16 32 12 28 21 11 19 -2 -14 -10 -9 40 -13 -17 -7 39 35 24 -11 -1 41 -27 -16 -5 38 31 -20 -3 -15 -19 -6 43 -34 -30 -8 -4 -21 -42 -26
right_child=1 6 5 8 9 10 20 15 14 23 -12 17 13 33 27 18 -18 34 30 25 -22 -23 -24 -25 36 26 -28 -29 29 -31 -32 -33 37 -35 -36 -37 -38 -39 -40 -41 42 -43 -44 -45
leaf_value=-0.017575344666768092 0.011714410567477058 0.004408805525779505 0.017522444937910355 0.0011600339954910821 -0.02697787333306649 -0.0019278118072740607 0.018373768579240442 0.0077126795415903707 0.0041338168072434702 -0.010219868495013941 0.0098081560867528117 -0.0095228120581653548 -0.0084342449854471185 0.017424053053061168 0.014281643472660921 0.017963223338759104 0.0082574846072468993 -0.0046857796179150075 0.004361322036811284 -0.017920569598949939 0.024301086145843198 -0.0067536507985953773 -0.0030996532771857582 -0.017927938449588902 -0.0063725819763479916 -0.011080318849785459 -0.0052304467157631672 0.00036430320194499058 0.0025778002824102114 -0.0019710993885867843 0.018029827843937609 0.014078196587084207 0.010656847523251942 0.0051479797186818419 0.0049034095291414712 -0.020570418661584457 -0.011958632876424969 0.020673839255976371 -0.020360157897597864 -0.0033532032867272694 0.004651066354977397 -0.010623641790385082 -0.0028232090218363189 0.012586230989545585
leaf_weight=66 143 51 6.9999999999999991 523 139 59 109 129 363 89 24 71 38 21 95 196 43 69 70 88 234 13.999999999999998 73 197 79 272 173 22 7.0000000000000027 192 54 62 109 354 61 150 147 39 19 5.9999999999999991 52 114 465 7.9999999999999991
leaf_count=66 143 51 7 523 139 59 109 129 363 89 24 71 38 21 95 196 43 69 70 88 234 14 73 197 79 272 173 22 7 192 54 62 109 354 61 150 147 39 19 6 52 114 465 8
internal_value=0 0.00803844 -0.00926708 0.00565351 -0.0155076 -0.00525948 0.017996 0.00956929 0.00223161 -0.0193063 -0.00782545 -0.00829205 0.00637221 0.00452249 0.00596947 0.0130479 -0.00104622 -0.00348423 0.0148496 -0.00966085 0.0219744 -0.0228714 -0.00950914 -0.0155293 -0.0110688 -0.010366 -0.0088061 0.0116647 -0.000189678 -0.00342775 0.0115686 0.00892531 0.0110187 0.00583544 -0.000186237 -0.0236522 -0.0092336 0.0132965 -0.0141846 0.0172402 -0.00180969 -0.0138025 -0.00207144 -0.00462924
internal_weight=0 2836 2460 2288 962 1498 548 1067 1221 589 931 907 556 413 480 511 567 201 382 706 349 303 373 286 300 647 445 117 741 218 186 132 199 375 130 289 234 148 26 115 524 202 517 87
internal_count=5296 2836 2460 2288 962 1498 548 1067 1221 589 931 907 556 413 480 511 567 201 382 706 349 303 373 286 300 647 445 117 741 218 186 132 199 375 130 289 234 148 26 115 524 202 517 87
is_linear=0
shrinkage=0.01


Tree=12
num_leaves=45
num_cat=0
split_feature=58 36 36 61 89 61 89 41 25 41 27 49 25 58 25 89 88 27 67 52 31 58 44 76 32 58 66 89 25 28 67 71 14 67 56 88 65 58 89 65 67 79 67 48
split_gain=3868.86 708.133 565.986 227.689 222.06 204.453 158.089 87.1103 74.2859 74.2402 73.1515 63.0326 61.031 59.9418 52.9478 47.9541 67.7018 44.3309 44.0427 42.3354 41.287 41.1063 40.253 35.5501 34.6024 31.8826 31.7567 30.7424 30.4424 29.6597 32.7949 28.9782 28.4631 28.3189 27.8591 27.4833 44.021 30.1714 27.3147 27.9395 26.3829 26.1276 25.8552 28.3051
threshold=1.0000000180025095e-35 -0.52049999999999985 0.41000000000000009 0.49463660353936534 0.095002129957217865 0.49463660353936534 -0.094888506011901436 0.99937666305253847 0.50550000000000017 0.99937666305253847 1.0000000180025095e-35 0.032709145092818442 0.68450000000000011 -0.64773306150250165 -0.81999999999999984 0.22111342759082786 0.10706295228316735 -1.0000000180025095e-35 0.40938145650597957 0.012341094283020304 0.48100000000000004 -0.2410058315400585 0.99937666305253847 0.45907266720159584 1.018 0.26832400316334476 0.3221246568395213 -0.22096754053974876 -0.32049999999999995 -1.0000000180025095e-35 0.25374759849791262 0.46532700980976788 -0.00045452274398444231 0.70395347521191487 0.91668040161330822 0.10706295228316735 0.78056379799251274 0.94798658656143331 0.046169063372598275 0.78056379799251274 0.70395347521191487 0.023579750772128708 0.40938145650597957 0.19407829180921807
decision_type=2 2 2 2 2 2 2 2 2 2 2 2 2 2 2 2 2 2 2 2 2 2 2 2 2 2 2 2 2 2 2 2 2 2 2 2 2 2 2 2 2 2 2 2
left_child=1 3 6 21 10 25 7 11 32 12 28 -2 15 24 19 -6 23 38 -18 -13 -10 42 -14 33 -5 -4 -27 -12 41 -16 -31 34 -7 -17 -28 -32 37 -37 -8 -40 -15 -3 -1 -44
right_child=2 4 5 13 9 8 17 -9 20 -11 27 14 22 40 29 16 18 -19 -20 -21 -22 -23 -24 -25 -26 26 31 -29 -30 30 35 -33 -34 -35 -36 36 -38 -39 39 -41 -42 -43 43 -45
leaf_value=-0.0090550094577072117 0.0140840352542453 -0.0067089478978736988 0.0036179200911970986 -0.020677617681882622 -0.0066152744940526365 0.016734783206735559 0.00067654487826259379 -0.010402618300914766 0.014840297672139891 0.0097100746259093287 0.013316065573093037 -0.018238925755023956 -0.0043265718260366058 -0.01305506976088509 0.0066447062537480766 -0.0089119599211133198 -0.0083315800551149628 0.0041054789282326757 -0.017765420710351983 0.0031632990712971714 0.024099694550435508 -0.0034705606208729517 0.018500016648322345 -0.004716017898761876 -0.028976193769056292 0.017484494836690526 0.0061702199365842991 0.0014237973125618554 -0.0020820724594680048 0.001777385518721798 0.0084164240929918994 0.012095687032691134 0.0080104861709665749 -0.021785105454921721 -0.016234359182417394 0.01169259435396541 0.032722964103405291 0.02779444318551284 -0.0034593173880906151 -0.018461602369944256 -0.023250700222148049 -0.026566490105220247 -0.0085704105341386401 -0.020829109140516573
leaf_weight=164 167 124 73 285 368 183 198 25 59 24 23 9.9999999999999982 225 140 371 54 69 306 175 122 262 92 7.9999999999999991 152 61 60 74 396 334 34 105 134 47 25 5.9999999999999991 111 12.999999999999998 12.999999999999998 72 14.999999999999998 31 6.9999999999999991 31 48
leaf_count=164 167 124 73 285 368 183 198 25 59 24 23 10 225 140 371 54 69 306 175 122 262 92 8 152 61 60 74 396 334 34 105 134 47 25 6 111 13 13 72 15 31 7 31 48
internal_value=0 -0.00796034 0.00917705 -0.0155856 -0.00468578 0.0155032 0.00554013 0.00802209 0.0192898 -0.0076849 -0.000953839 0.008509 -0.0080729 -0.0197469 0.00731384 -0.00932498 -0.0114243 0.00146233 -0.0150977 0.00154192 0.0223978 -0.00916356 -0.00354283 -0.00754419 -0.0221407 0.00949046 0.011055 0.00207659 -0.00368449 0.00849142 0.0109738 0.00925239 0.014952 -0.0129857 0.00448988 0.0122658 0.0152161 0.0133807 -0.00137558 -0.00604592 -0.0149034 -0.00777004 -0.0113189 -0.0160187
internal_weight=0 2836 2460 852 1984 898 1562 971 551 1100 884 946 1076 517 779 843 475 591 244 132 321 335 233 231 346 347 274 419 465 647 276 214 230 79 80 242 137 124 285 87 171 131 243 79
internal_count=5296 2836 2460 852 1984 898 1562 971 551 1100 884 946 1076 517 779 843 475 591 244 132 321 335 233 231 346 347 274 419 465 647 276 214 230 79 80 242 137 124 285 87 171 131 243 79
is_linear=0
shrinkage=0.01


Tree=13
num_leaves=45
num_cat=0
split_feature=58 36 36 89 61 89 61 62 31 25 41 44 66 38 58 32 46 25 36 77 67 12 25 66 33 89 88 78 71 89 66 23 68 60 31 66 58 74 63 87 76 32 58 23
split_gain=3792.44 647.941 591.299 295.031 210.792 155.547 145.779 114.629 106.703 77.0639 73.6008 57.8875 53.3606 67.6809 48.6417 47.8567 42.7447 40.4042 39.2137 39.0865 37.4445 37.2013 36.8009 36.0979 35.3814 34.0078 58.3238 33.6988 32.8609 30.9874 33.2009 30.1416 29.3772 29.3047 29.0171 28.8519 28.7559 28.433 28.2612 26.4785 26.2258 26.1817 26.1669 26.1934
threshold=-1.0000000180025095e-35 0.81900000000000006 -0.33199999999999996 -0.14936925800275266 0.49463660353936534 0.095002129957217865 0.49463660353936534 0.49244445348166416 0.13950000000000004 -0.66249999999999998 0.99937666305253847 0.80592170819078202 0.43620496546093229 0.012341094283020304 0.49541653982718731 1.0000000180025095e-35 0.91668040161330822 0.25650000000000006 0.81900000000000006 0.66137720323525928 0.25374759849791262 0.0055955381899605913 0.50550000000000017 0.3221246568395213 0.12300000000000001 0.3123416038200254 0.10706295228316735 0.63011153749301674 0.46532700980976788 0.046169063372598275 0.23349467037423244 0.0046354767073105161 0.47348159654656491 0.80407298542433348 -1.0204999999999997 0.28358724777515393 0.26832400316334476 0.67338256397459184 0.48109127764901544 0.10263406379881657 0.57529136277158377 -0.14749999999999996 0.49541653982718731 -0.0044477968757164641
decision_type=2 2 2 2 2 2 2 2 2 2 2 2 2 2 2 2 2 2 2 2 2 2 2 2 2 2 2 2 2 2 2 2 2 2 2 2 2 2 2 2 2 2 2 2
left_child=2 3 4 7 23 18 36 12 29 21 11 20 -2 -14 -10 17 42 -9 -4 -13 -7 35 40 -1 -11 -22 37 -16 -25 -5 41 -19 39 -21 -15 -6 -3 -27 -38 -28 -8 -31 43 -17
right_child=1 6 5 8 9 10 22 15 14 24 -12 19 13 34 27 16 -18 31 -20 33 25 -23 -24 28 -26 26 32 -29 -30 30 -32 -33 -34 -35 -36 -37 38 -39 -40 -41 -42 -43 -44 -45
leaf_value=-0.015574903390905191 0.011505956806216416 0.0043421386695448681 -0.0017813191126004465 0.001126253160992063 -0.026496702402615719 -0.0018508130577156098 0.01803114982937044 0.011957490450029609 0.0040509584092750916 -0.009972971921389023 0.0096129738911986361 -0.0093615140011337333 -0.0082986511638093938 0.017127888600031536 0.014048044919771583 -0.0036854883534833786 -0.019325044810771942 0.021826342019944565 0.0081523749113169529 0.0041257428141155588 -0.0081951826197789318 -0.0065232192858612897 0.023819261923209472 -0.0034596092978635014 -0.017569971820174099 -0.0065225701538022332 -0.016732748769881095 0.0003130985838784413 -0.010321357023364746 0.0025661131313868919 -0.0019253433098250148 0.0084711617575958381 -0.021082995561663719 -0.0054254966017244187 0.0050294003254598499 -0.02017283120552699 0.018650239269648278 -0.019993268501841358 0.0096399566140051157 -0.001733381421201759 -0.0034433979541063308 -0.020057365611979835 0.01330520886960585 0.0089413868384840695
leaf_weight=74 143 51 524 523 139 59 109 137 363 89 24 71 38 21 95 20 4.9999999999999991 109 43 72 371 13.999999999999998 234 111 197 121 34 22 188 7.0000000000000027 192 20 85 58 354 150 56 18 92 18 5.9999999999999991 19 128 92
leaf_count=74 143 51 524 523 139 59 109 137 363 89 24 71 38 21 95 20 5 109 43 72 371 14 234 111 197 121 34 22 188 7 192 20 85 58 354 150 56 18 92 18 6 19 128 92
internal_value=0 0.00788134 -0.00908597 0.00554209 -0.0152039 -0.0051571 0.0176481 0.00938342 0.00218525 -0.018929 -0.00767183 -0.0081292 0.00624118 0.00441827 0.00585823 0.0128024 0.00961363 0.0157394 -0.00102797 -0.00339449 -0.00947718 -0.0224432 0.0215428 -0.00932165 -0.0152059 -0.0101726 -0.0128307 0.0114654 -0.00777402 -0.000194012 -0.00336144 0.0197558 -0.0174611 -0.000135579 0.00570692 -0.0232144 0.0108178 -0.00826698 0.0130493 -0.0115407 0.0169107 -0.0139664 0.0102165 0.00668659
internal_weight=0 2836 2460 2288 962 1498 548 1067 1221 589 931 907 556 413 480 511 245 266 567 201 706 303 349 373 286 647 276 117 299 741 218 129 137 130 375 289 199 139 148 52 115 26 240 112
internal_count=5296 2836 2460 2288 962 1498 548 1067 1221 589 931 907 556 413 480 511 245 266 567 201 706 303 349 373 286 647 276 117 299 741 218 129 137 130 375 289 199 139 148 52 115 26 240 112
is_linear=0
shrinkage=0.01


Tree=14
num_leaves=45
num_cat=0
split_feature=58 36 36 61 89 61 89 41 41 25 27 49 49 27 25 25 24 27 52 52 31 58 32 89 89 58 66 89 71 58 62 20 25 31 33 56 40 79 77 66 72 42 33 72
split_gain=3719.31 680.762 544.127 218.506 213.114 196.728 152.109 84.3438 71.3186 71.1785 70.8959 61.0406 59.5671 58.2592 51.6509 50.5111 48.9237 43.0273 41.6042 40.9943 39.8452 39.7737 36.5985 32.8566 31.396 30.7377 30.8351 29.9654 29.7724 29.5511 43.5844 32.1229 29.5336 28.661 27.5238 26.6056 25.6409 25.4772 25.43 25.3868 25.5933 25.2289 25.0427 24.9335
threshold=1.0000000180025095e-35 -0.52049999999999985 0.41000000000000009 0.49463660353936534 0.095002129957217865 0.49463660353936534 -0.094888506011901436 0.99937666305253847 0.99937666305253847 0.50550000000000017 1.0000000180025095e-35 0.032709145092818442 0.032709145092818442 -0.28499999999999998 -0.81999999999999984 0.83400000000000007 -0.00386718649088006 -1.0000000180025095e-35 0.012341094283020304 0.012341094283020304 0.48100000000000004 -0.2410058315400585 1.018 0.095002129957217865 0.22111342759082786 0.26832400316334476 0.47130586784146106 -0.046073516138681402 0.46532700980976788 -0.2410058315400585 0.53323422083521022 0.0020068353739426258 -0.32049999999999995 -1.0204999999999997 -0.11499999999999998 0.96729085490718159 0.012341094283020304 0.023579750772128708 0.41679548568219876 0.47130586784146106 0.48711248151816466 0.98765890571697967 1.0350000000000001 0.48711248151816466
decision_type=2 2 2 2 2 2 2 2 2 2 2 2 2 2 2 2 2 2 2 2 2 2 2 2 2 2 2 2 2 2 2 2 2 2 2 2 2 2 2 2 2 2 2 2
left_child=1 3 6 21 10 25 7 11 12 34 32 41 24 16 19 29 -5 35 -17 -13 -11 39 36 -24 43 -4 -27 -12 -28 30 -14 -32 37 -16 -7 -8 -18 -3 -37 40 -1 -2 -19 -6
right_child=2 4 5 13 8 9 17 -9 -10 20 27 14 15 -15 33 18 22 42 -20 -21 -22 -23 23 -25 -26 26 28 -29 -30 -31 31 -33 -34 -35 -36 38 -38 -39 -40 -41 -42 -43 -44 -45
leaf_value=-0.012184357876707425 0.012702577250779836 -0.0066028607578388597 0.0035365518731103368 0.0049462312034198215 -0.019107650760561229 0.017367229650889597 -0.00064369285997451734 -0.010263265782594682 0.0095168440416455273 0.014533033716271364 0.0057211747863490526 -0.017996302589774131 -0.0071629994005948921 -0.013413314720727503 0.017411209396792179 0.018353014111518861 -0.024155444870744131 0.0045340010608461772 -0.0028199334475103506 0.0030642011395052506 0.02362930952969455 -0.003390257231607709 -0.0038638310432434083 -0.03052831057642327 -0.016395852458829591 0.01447466085221441 0.0017388055104551451 9.9601655974168414e-05 0.011093688870535086 -0.0042346482541724354 -0.010786566427581808 -0.021025152033660559 -0.0020482386574344319 0.007844630572783718 0.01023393432384935 -0.023533564284443857 -0.018227703537231365 -0.026211697544370378 0.0040870547071099285 -0.0081708738774663413 -0.024045748717111088 0.027209501816676213 -0.012397732494605913 -0.0050330345231597703
leaf_weight=87 154 124 73 6.9999999999999991 15.999999999999998 143 270 25 24 59 145 9.9999999999999982 406 125 33 9.9999999999999982 113 297 129 122 262 92 4.9999999999999991 61 112 126 53 274 95 173 131 40 334 614 87 9.9999999999999982 206 6.9999999999999991 4.9999999999999991 133 23 12.999999999999998 8.9999999999999982 59
leaf_count=87 154 124 73 7 16 143 270 25 24 59 145 10 406 125 33 10 113 297 129 122 262 92 5 61 112 126 53 274 95 173 131 40 334 614 87 10 206 7 5 133 23 13 9 59
internal_value=0 -0.00780498 0.00899794 -0.0152814 -0.00459433 0.0152007 0.00543195 0.00786651 -0.00753242 0.0189151 -0.000938334 0.00834563 -0.0079127 -0.0193579 0.0071695 -0.00683359 -0.0212536 0.00143202 -0.0012967 0.00146871 0.0219574 -0.00899021 -0.0217299 -0.0285083 -0.0130428 0.00930269 0.0108389 0.00204501 0.00774363 -0.00785976 -0.00894666 -0.0131816 -0.00362656 0.00833257 0.014669 -0.00136385 -0.0203275 -0.00765066 -0.0143267 -0.0111104 -0.0146645 0.0138319 0.00403601 -0.00803562
internal_weight=0 2836 2460 852 1984 898 1562 971 1100 551 884 946 1076 517 779 889 392 591 139 132 321 335 385 66 187 347 274 419 148 750 577 171 465 647 230 285 319 131 15 243 110 167 306 75
internal_count=5296 2836 2460 852 1984 898 1562 971 1100 551 884 946 1076 517 779 889 392 591 139 132 321 335 385 66 187 347 274 419 148 750 577 171 465 647 230 285 319 131 15 243 110 167 306 75
is_linear=0
shrinkage=0.01


Tree=15
num_leaves=45
num_cat=0
split_feature=58 36 36 89 61 89 61 61 31 25 41 38 44 49 58 33 32 36 12 58 25 66 33 78 23 16 58 88 65 89 66 66 58 51 72 32 71 86 43 38 76 89 36 15
split_gain=3645.41 623.364 568.391 284.178 202.746 149.331 139.59 111.004 102.924 74.4396 70.7081 69.2639 56.2687 54.9957 47.1815 46.7649 46.6458 38.1639 36.1088 35.3061 35.2766 34.3136 34.2485 32.9017 32.8675 35.8735 33.1369 37.0968 30.2552 29.919 32.2179 28.0467 27.6576 27.5743 27.4858 27.1289 26.9853 26.7083 26.082 25.9791 25.6508 25.4119 24.8664 24.7057
threshold=-1.0000000180025095e-35 0.81900000000000006 -0.33199999999999996 -0.14936925800275266 0.49463660353936534 0.095002129957217865 0.49463660353936534 0.5833630302728855 0.13950000000000004 -0.66249999999999998 0.99937666305253847 0.012341094283020304 0.99937666305253847 0.083319598386691909 0.49541653982718731 0.27350000000000008 1.0000000180025095e-35 0.81900000000000006 0.0055955381899605913 -0.2410058315400585 0.50550000000000017 0.47130586784146106 0.12300000000000001 0.63011153749301674 -0.0099161171832076716 0.0098149866690957852 0.86844966220935005 0.10706295228316735 0.56018265202439355 0.046169063372598275 0.28358724777515393 0.28358724777515393 0.26832400316334476 0.38447367005540317 0.45455317703024128 -0.14749999999999996 0.46532700980976788 0.94220100045475241 0.19407829180921807 0.012341094283020304 0.57529136277158377 -0.14936925800275266 0.99700000000000011 0.019250084613335657
decision_type=2 2 2 2 2 2 2 2 2 2 2 2 2 2 2 2 2 2 2 2 2 2 2 2 2 2 2 2 2 2 2 2 2 2 2 2 2 2 2 2 2 2 2 2
left_child=2 3 4 7 19 17 32 11 29 18 12 15 13 -7 -10 -2 -9 39 31 21 40 34 -11 -16 25 -13 -26 -28 -15 43 35 -6 -3 -34 -1 -31 -23 -30 -32 -4 -8 -41 -22 -5
right_child=1 6 5 8 9 10 20 16 14 22 -12 24 -14 28 23 -17 -18 -19 -20 -21 42 36 -24 -25 26 -27 27 -29 37 30 38 -33 33 -35 -36 -37 -38 -39 -40 41 -42 -43 -44 -45
leaf_value=-0.011227938529027967 0.0077336689496510904 0.0042722679594275996 0.017382152463708604 0.0016252327935432221 -0.026009474246487984 -0.0123617849245145 0.017690861162808595 0.016360556433405893 0.0039654914286537937 -0.0097520320139448634 0.0094216755901773783 0.0025713746181530196 0.0086189890112727888 -0.0048188083794101014 0.013819713392540027 -0.012190827208180582 0.00948345742092601 0.0080463230534088478 -0.0063290321291424338 -0.0029005436483158231 0.021368073991755821 -0.0017815280370414258 -0.017226416883082483 0.00024817689491266558 0.0068012754160950116 -0.025800534725189207 0.0056234708085486839 0.015848216061643324 -0.0083817465054230791 0.0023929080967273978 0.0072037213498593444 -0.019774472350875535 0.010229572865155039 0.02002758053250802 -0.020668619276748762 -0.017965598640342553 -0.010471768695130652 -0.020645077440299486 -0.0032730431623673841 0.0046171777962277149 -0.0035469697664181395 -0.0027539733168681561 0.028717376381631882 -0.0078717783332706015
leaf_weight=98 19 51 6.9999999999999991 494 139 246 109 226 363 89 24 41 20 350 95 31 175 43 13.999999999999998 73 171 55 197 22 415 4.9999999999999991 55 100 272 8.9999999999999982 28 150 109 39 45 24 102 19 157 52 5.9999999999999991 465 63 29
leaf_count=98 19 51 7 494 139 246 109 226 363 89 24 41 20 350 95 31 175 43 14 73 171 55 197 22 415 5 55 100 272 9 28 150 109 39 45 24 102 19 157 52 6 465 63 29
internal_value=0 0.00772705 -0.00890809 0.00543259 -0.0149063 -0.00505608 0.0173068 0.00920261 0.00213807 -0.0185596 -0.00752006 0.00669983 -0.00796835 -0.00834236 0.00574543 -0.00461952 0.0133593 -0.0010103 -0.0220135 -0.00913745 0.0211179 -0.0106551 -0.0149005 0.0112678 0.00761861 -0.000512529 0.00827481 0.0122201 -0.0067998 -0.000198675 -0.00331102 -0.0227733 0.010623 0.0128115 -0.0141988 -0.0124133 -0.00742742 -0.00918245 -0.00168737 -0.00175349 0.0165828 -0.00201258 0.0233467 0.00109863
internal_weight=0 2836 2460 2288 962 1498 548 1067 1221 589 931 666 907 887 480 50 401 567 303 373 349 300 286 117 616 46 570 155 641 741 218 289 199 148 143 33 157 291 185 524 115 517 234 523
internal_count=5296 2836 2460 2288 962 1498 548 1067 1221 589 931 666 907 887 480 50 401 567 303 373 349 300 286 117 616 46 570 155 641 741 218 289 199 148 143 33 157 291 185 524 115 517 234 523
is_linear=0
shrinkage=0.01


Tree=16
num_leaves=45
num_cat=0
split_feature=58 36 36 61 89 61 89 41 27 41 25 44 44 58 58 40 77 27 41 40 86 58 32 60 38 58 66 75 88 63 89 25 71 67 48 56 14 89 65 69 20 79 67 48
split_gain=3575.51 654.374 523.552 209.691 204.457 189.392 146.302 81.2284 68.8028 68.5089 68.371 59.2724 57.5622 74.1299 56.9609 46.4311 43.2614 41.7667 41.522 40.1718 39.3837 38.0344 32.7188 31.3487 30.5501 29.6321 30.2301 29.4895 33.2449 31.7052 29.2771 28.6161 27.8097 27.7696 27.3971 27.1279 26.7279 25.7871 26.376 25.7474 25.3239 24.7978 24.7892 27.1381
threshold=1.0000000180025095e-35 -0.52049999999999985 0.41000000000000009 0.49463660353936534 0.095002129957217865 0.49463660353936534 -0.094888506011901436 0.99937666305253847 1.0000000180025095e-35 0.99937666305253847 0.50550000000000017 0.80592170819078202 0.61552632994459688 -0.2410058315400585 -0.64773306150250165 0.032709145092818442 0.66137720323525928 -1.0000000180025095e-35 0.99830784414015217 0.032709145092818442 0.69544430843329241 -0.2410058315400585 1.018 0.80407298542433348 0.012341094283020304 0.26832400316334476 0.3221246568395213 0.54650510693034349 0.11254943650237645 0.32716134090482335 -0.22096754053974876 -0.32049999999999995 0.46532700980976788 0.25374759849791262 0.19407829180921807 0.91668040161330822 -0.00045452274398444231 0.046169063372598275 0.78056379799251274 0.56252842201000475 -0.00070258136335071819 0.023579750772128708 0.40938145650597957 0.19407829180921807
decision_type=2 2 2 2 2 2 2 2 2 2 2 2 2 2 2 2 2 2 2 2 2 2 2 2 2 2 2 2 2 2 2 2 2 2 2 2 2 2 2 2 2 2 2 2
left_child=1 3 6 21 8 25 7 11 31 12 36 15 13 19 22 -2 -13 37 24 -6 40 42 -5 -18 -14 -4 -27 29 -29 34 -10 41 35 -17 -21 -28 -7 -8 -39 -16 -12 -3 -1 -44
right_child=2 4 5 14 9 10 17 -9 30 -11 20 16 18 -15 39 33 23 -19 -20 27 -22 -23 -24 -25 -26 26 32 28 -30 -31 -32 -33 -34 -35 -36 -37 -38 38 -40 -41 -42 -43 43 -45
leaf_value=-0.0086762217595809845 0.013908051066820956 -0.0064994481729433659 0.0034581515675232016 -0.019886982528215046 -0.015309937452787864 0.016117189497982097 0.00064082764474806761 -0.010079804962873459 0.012983482489767282 0.0093274588013688726 0.0081315374530611488 0.0095814495596631948 0.0095199848069912867 -0.0035851681489209282 -0.017331063104704732 0.0015916464137607964 -0.0042924053862539906 0.0039670863848832415 -0.018750588645537695 0.025645616237074138 0.023365700743087227 -0.0033435634990303738 -0.027956539226360006 0.0054798264385564101 -0.0039462194158412347 0.016900997494657836 0.0058618428578247894 -0.0093080350278657593 -0.020315346065098824 -0.008502218000986243 0.0013780928155374384 -0.0020184691130144599 0.011654582215584259 0.0088464523623625144 -0.0035494835162535312 -0.016246785099307697 0.0076630053066826884 -0.0033777720538879902 -0.017954234878222147 -0.0093603392524440124 0.020310700026242749 -0.025845053366252355 -0.0082017224498333475 -0.020205053107541365
leaf_weight=164 181 124 73 285 153 183 198 25 23 24 31 74 18 181 105 59 74 306 18 4.9999999999999991 252 92 61 59 263 60 74 68 46 315 396 334 134 499 8.9999999999999982 5.9999999999999991 47 72 14.999999999999998 66 38 6.9999999999999991 31 48
leaf_count=164 181 124 73 285 153 183 198 25 23 24 31 74 18 181 105 59 74 306 18 5 252 92 61 59 263 60 74 68 46 315 396 334 134 499 9 6 47 72 15 66 38 7 31 48
internal_value=0 -0.00765261 0.00882228 -0.0149827 -0.0045048 0.0149066 0.00532436 0.007712 -0.000923836 -0.00738259 0.0185511 0.00818218 -0.00775531 -0.0091901 -0.0189762 0.00950696 0.00345265 0.00140152 -0.00402678 -0.0108923 0.0215328 -0.00881971 -0.0213097 4.26448e-05 -0.00308362 0.00911964 0.010628 -0.00936652 -0.0137496 -0.00784777 0.00201514 -0.00357208 0.0088692 0.00807937 0.00687734 0.0042037 0.0143896 -0.00135309 -0.00589096 -0.0142546 0.0148389 -0.00753318 -0.010893 -0.0154949
internal_weight=0 2836 2460 852 1984 898 1562 971 884 1100 551 946 1076 777 517 739 207 591 299 596 321 335 346 133 281 347 274 443 114 329 419 465 214 558 14 80 230 285 87 171 69 131 243 79
internal_count=5296 2836 2460 852 1984 898 1562 971 884 1100 551 946 1076 777 517 739 207 591 299 596 321 335 346 133 281 347 274 443 114 329 419 465 214 558 14 80 230 285 87 171 69 131 243 79
is_linear=0
shrinkage=0.01


Tree=17
num_leaves=45
num_cat=0
split_feature=58 36 36 61 89 89 62 25 41 27 41 31 25 58 61 44 89 88 67 25 58 44 76 36 86 25 74 67 33 89 58 50 83 45 89 89 88 35 25 67 20 76 67 54
split_gain=3504.36 641.352 513.179 205.519 200.388 185.012 111.32 110.774 67.7712 67.4336 67.1456 61.3748 56.9025 55.8273 49.2775 45.8894 44.9615 64.3825 41.5738 41.3764 37.2776 37.2773 33.7985 33.683 32.4224 31.2902 32.979 30.8377 29.7239 29.6829 29.4521 29.736 28.909 28.8144 28.78 28.6733 57.2805 34.8479 28.0467 27.0699 27.017 26.1928 25.6989 25.1539
threshold=1.0000000180025095e-35 -0.52049999999999985 0.81900000000000006 0.49463660353936534 0.095002129957217865 -0.094888506011901436 0.45610615942759219 1.0000000180025095e-35 0.99937666305253847 1.0000000180025095e-35 0.99937666305253847 0.13950000000000004 0.68450000000000011 -0.64773306150250165 0.49463660353936534 0.99937666305253847 0.22111342759082786 0.10706295228316735 0.40938145650597957 0.50550000000000017 -0.2410058315400585 0.99937666305253847 0.45907266720159584 0.99700000000000011 0.9073075249521787 -0.66249999999999998 0.67338256397459184 0.25374759849791262 1.0350000000000001 -0.22096754053974876 0.49541653982718731 0.38447367005540317 0.026158056146993253 0.032709145092818442 -0.046073516138681402 -0.22096754053974876 0.10706295228316735 0.45150000000000007 -0.32049999999999995 0.70395347521191487 -0.0017755075626427229 0.31225267665070677 0.70395347521191487 0.19407829180921807
decision_type=2 2 2 2 2 2 2 2 2 2 2 2 2 2 2 2 2 2 2 2 2 2 2 2 2 2 2 2 2 2 2 2 2 2 2 2 2 2 2 2 2 2 2 2
left_child=1 3 5 20 9 7 33 8 15 38 12 28 16 24 -9 27 -6 22 -19 32 -1 -14 39 -21 25 -5 -27 -2 -7 -16 40 -32 -8 -4 -11 36 -29 43 -3 -18 -13 -30 -15 -38
right_child=2 4 6 13 10 11 19 14 -10 34 -12 30 21 42 29 -17 17 18 -20 23 -22 -23 -24 -25 -26 26 -28 35 41 -31 31 -33 -34 -35 -36 -37 37 -39 -40 -41 -42 -43 -44 -45
leaf_value=-0.010784059015137178 0.0009163805721721179 -0.0074578509891746947 0.019234116097412459 -0.021627124928107318 -0.0062629538563250334 0.00027473439173895475 0.028853660186131794 0.0078985377621617822 -0.0099790069639682771 0.0055977043740708258 0.0092341844923794266 -0.0014654499916783113 -0.0040578085067280983 -0.012287882150982374 0.016467970889141634 -0.0090009682201262972 -0.0084585811608229519 -0.0079279895858380238 -0.017093594858130175 0.021352256427829161 -0.0033101278338986246 0.017908838838338853 -0.0043780934113984635 0.030363366587885788 -0.024923558856602069 -0.0099084231904628933 -0.024767482727766039 0.0056031263463082728 -0.026248853504657731 0.0099317507696987106 0.0067395359254917324 0.020325766581954667 0.013846717741382256 0.0098556005216540732 8.8446242819764539e-05 0.0050032409925973957 0.014985217876548385 0.020989563449878585 -0.0019982843868389818 -0.021044656014442446 0.0062609120014692765 -0.0028889673172185822 -0.022350486250474089 0.007219719887700279
leaf_weight=243 71 131 41 132 368 380 14.999999999999998 170 25 145 24 66 225 140 233 18 54 69 175 160 92 7.9999999999999991 152 56 135 59 20 200 8.0000000000000018 99 49 24 89 163 274 226 81 44 334 25 144 11.999999999999998 31 86
leaf_count=243 71 131 41 132 368 380 15 170 25 145 24 66 225 140 233 18 54 69 175 160 92 8 152 56 135 59 20 200 8 99 49 24 89 163 274 226 81 44 334 25 144 12 31 86
internal_value=0 -0.00757609 0.00873406 -0.0148329 -0.00445975 0.00635788 0.0175132 0.00864022 0.00620928 -0.000914597 -0.00730877 0.00217079 -0.00767775 -0.0187864 0.012277 0.00676673 -0.00888675 -0.0109195 -0.0145017 0.0211934 -0.00873152 -0.00330359 -0.00713571 0.0236885 -0.0210966 -0.018648 -0.0136702 0.0071676 -0.000350648 0.0145189 0.00573465 0.0112062 0.0160112 0.0117405 0.00199499 0.00786436 0.00943763 0.0130722 -0.00353636 -0.0124415 0.00383263 -0.0122329 -0.0141121 0.0109862
internal_weight=0 2836 2460 852 1984 1936 524 1253 751 884 1100 683 1076 517 502 726 843 475 244 320 335 233 231 216 346 211 79 708 400 332 283 73 104 204 419 637 411 211 465 79 210 20 171 167
internal_count=5296 2836 2460 852 1984 1936 524 1253 751 884 1100 683 1076 517 502 726 843 475 244 320 335 233 231 216 346 211 79 708 400 332 283 73 104 204 419 637 411 211 465 79 210 20 171 167
is_linear=0
shrinkage=0.01


end of trees

feature_importances:
Column_58=91
Column_89=89
Column_25=68
Column_36=47
Column_61=39
Column_41=31
Column_66=29
Column_67=29
Column_27=25
Column_44=22
Column_32=19
Column_88=18
Column_31=17
Column_71=16
Column_49=15
Column_56=15
Column_33=14
Column_65=14
Column_86=14
Column_76=13
Column_52=11
Column_77=10
Column_14=8
Column_28=8
Column_62=8
Column_79=8
Column_15=7
Column_37=7
Column_38=7
Column_48=7
Column_75=7
Column_23=6
Column_72=6
Column_63=5
Column_12=4
Column_51=4
Column_60=4
Column_3=3
Column_20=3
Column_29=3
Column_40=3
Column_42=3
Column_78=3
Column_16=2
Column_17=2
Column_21=2
Column_22=2
Column_26=2
Column_35=2
Column_43=2
Column_46=2
Column_54=2
Column_69=2
Column_74=2
Column_83=2
Column_87=2
Column_24=1
Column_30=1
Column_45=1
Column_50=1
Column_64=1
Column_68=1

parameters:
[boosting: gbdt]
[objective: regression]
[metric: rmse]
[tree_learner: serial]
[device_type: cpu]
[linear_tree: 0]
[data: ]
[valid: ]
[num_iterations: 490]
[learning_rate: 0.01]
[num_leaves: 45]
[num_threads: 0]
[deterministic: 0]
[force_col_wise: 0]
[force_row_wise: 0]
[histogram_pool_size: -1]
[max_depth: 14]
[min_data_in_leaf: 5]
[min_sum_hessian_in_leaf: 0.001]
[bagging_fraction: 1]
[pos_bagging_fraction: 1]
[neg_bagging_fraction: 1]
[bagging_freq: 0]
[bagging_seed: 3]
[feature_fraction: 1]
[feature_fraction_bynode: 1]
[feature_fraction_seed: 2]
[extra_trees: 0]
[extra_seed: 6]
[early_stopping_round: 50]
[first_metric_only: 0]
[max_delta_step: 0]
[lambda_l1: 0]
[lambda_l2: 0]
[linear_lambda: 0]
[min_gain_to_split: 0]
[drop_rate: 0.1]
[max_drop: 50]
[skip_drop: 0.5]
[xgboost_dart_mode: 0]
[uniform_drop: 0]
[drop_seed: 4]
[top_rate: 0.2]
[other_rate: 0.1]
[min_data_per_group: 100]
[max_cat_threshold: 32]
[cat_l2: 10]
[cat_smooth: 10]
[max_cat_to_onehot: 4]
[top_k: 20]
[monotone_constraints: ]
[monotone_constraints_method: basic]
[monotone_penalty: 0]
[feature_contri: ]
[forcedsplits_filename: ]
[refit_decay_rate: 0.9]
[cegb_tradeoff: 1]
[cegb_penalty_split: 0]
[cegb_penalty_feature_lazy: ]
[cegb_penalty_feature_coupled: ]
[path_smooth: 0]
[interaction_constraints: ]
[verbosity: 1]
[saved_feature_importance_type: 0]
[max_bin: 15]
[max_bin_by_feature: ]
[min_data_in_bin: 95]
[bin_construct_sample_cnt: 200000]
[data_random_seed: 1]
[is_enable_sparse: 1]
[enable_bundle: 1]
[use_missing: 1]
[zero_as_missing: 0]
[feature_pre_filter: 1]
[pre_partition: 0]
[two_round: 0]
[header: 0]
[label_column: ]
[weight_column: ]
[group_column: ]
[ignore_column: ]
[categorical_feature: ]
[forcedbins_filename: ]
[objective_seed: 5]
[num_class: 1]
[is_unbalance: 0]
[scale_pos_weight: 1]
[sigmoid: 1]
[boost_from_average: 1]
[reg_sqrt: 0]
[alpha: 0.9]
[fair_c: 1]
[poisson_max_delta_step: 0.7]
[tweedie_variance_power: 1.5]
[lambdarank_truncation_level: 30]
[lambdarank_norm: 1]
[label_gain: ]
[eval_at: ]
[multi_error_top_k: 1]
[auc_mu_weights: ]
[num_machines: 1]
[local_listen_port: 12400]
[time_out: 120]
[machine_list_filename: ]
[machines: ]
[gpu_platform_id: -1]
[gpu_device_id: -1]
[gpu_use_dp: 0]
[num_gpu: 1]

end of parameters

pandas_categorical:null
